{"loss":1.306308486752386,"optimizationFunction":"Adam","lRegularizationType":"L2","positiveOutputThreshold":0.1,"layers":[{"activationFunctionDerivative":"ReLU","l1RegularizationLambda":0.1,"l2RegularizationLambda":0.1,"layerLearningRate":0.001,"biases":[0,-7.924554926992809,-0.0010274808213272715,0,-5.454892377856756E-4,0,-0.0014868505071636302,0,-0.0024827429872750404,0,0,0,0,-6.709013225135236,-8.155363965585204,0,0,-5.672242263039776,-5.834110505693664,-5.810467071510719,0,0,-5.354540730309474E-4,-8.374149624039221,0,-6.629202855987261,-2.476029701393226,0,0,-7.651741017288743,0,0,-0.32245551824066837,-5.924609264293302,-0.818533894343328,-0.002047451306636834,-0.528280308018296,-0.014778699175055152,0,-9.999999900000003E-4,-0.5535784787687356,-8.095227333765632,-4.819915835415959E-4,0,-2.909650534300489,-0.7614172347216125,-6.16191850205263,0,-3.4089605408443604,-5.661391951504975,0,-2.4845774087720627,0,-4.819915835415959E-4,-7.374304124636804,-7.803909241814515,-8.533594701395758,0,-0.236007173769551,-4.503870670450271,-1.8518875320513413,-0.0011273139083645182,0,-7.795885590084761,-8.435680257252145,-8.386524829183097,0,-2.981667384978397,-8.160302639349446,-5.454892377856756E-4,-8.402269808906293,0,-7.127456598476018,-3.4631079894168586,-0.0011622098407167974,-5.866822075366641,-5.569942451888907,-1.745514465583136,-6.951219617709155,0,0,0,-5.6734771430611595,-8.533594701395758,-8.517086799216155,-6.8287847101978185,-0.0015354540630309475,-9.999999900000003E-4,0,0,0,-0.1853727066464433,0,-6.75862193307771,-2.9217904027951103,0,0,0,0,-8.31986268151316,-0.0010342434079132334,-1.2163894341162547,0,-8.035886071324578,-8.28973242016544,-7.741444279234458,-1.398502712055455,0,-0.0010809433108166229,0,0,0,-8.294380734370387,0,-8.278700309629144,-4.887541701275578E-4,-7.886763258061819,0,-5.454892377856756E-4,0,-8.51683413803978,0,-8.477083589263172,0,-3.5889750131553355,0,0,-0.0011513397442422454,-4.819915835415959E-4,0,0,-4.76270761991529,-6.104694878624454,-7.123191366371093,0,0,-2.243211055567007,-6.398846340785308,-5.024866833416128,0,-1.944509146732299,-0.0015119972336058868,0,0,-0.0010048589236220343,0,-3.4672123416850886,-2.038764745591461,-6.555124335571756,0,-4.170788870416348,0,0,-4.126817346348727,-5.354540730309474E-4,0,-0.003051689054485777,-0.0015995516908823668,0,-9.999999900000003E-4,-7.411754408541634,-4.957754153409849,-8.270180639901202,-0.001057486481391562,-7.187144845708152,-7.684868761892933,-0.0011040708348861894,0,-4.647043085458577,-7.55119014239953,-7.663525023566792,-8.288864703664347,-4.107072638058749,-4.394315515231734,0,-8.108603153170833,-3.7625941660197437,-2.4578144986199155,-5.901360441726602,0,-8.496929013272625,-2.2455709159487824,-6.216073376704138,-0.0010809433108166229,0,-5.243205026448352,-5.943987640533584,-8.456295209181814,-7.04211123904362,0,0,-5.808141181647775,-0.001993988817147483,-8.52181322839019,-8.351052781286459,-7.689035473442828,-3.7276619081521427,0,0,0,-8.198325232215907,0,0,-8.074805866378254,-0.0017531507606678351,-8.444121386722582,-5.354540730309474E-4,0,-0.0010274808213272715,-8.494777154965492,-5.119972436058865E-4,-0.0010383509178018234,-0.8030230005039298,0,-5.143858141139801,-4.6220296155853156,-5.165014212480876,-6.642781155146508,0,-8.157274968697466,0,0,0,-8.478109778477208,0,-4.101123031158845,-8.50581179699746,-0.0010174456565725434,0,-0.11771219301145693,0,-8.107723735078787,0,-1.2817579058658723,-1.7057109250203297,0,-5.3082770448592,-5.145499716658341,-6.917382601437629,-4.887541701275578E-4,0,-6.974846064536107,0,0,-6.444514306766821,-4.928616800161478E-4,-9.999999900000003E-4,-3.1098352125988713,-8.50374186014023,-5.350416867217867,-8.416781117717479,0,-8.5009991027454,0,0,0],"activationFunction":"ReLU","tag":"Hidden 1","type":"HIDDEN","weights":[[-1.6840519818227788E-139,1.2479970681757811E-139,-8.344872182135823E-140,-3.7359817119576985E-140,4.291749385389491E-141,7.358588500711592E-140,1.8507129416307014E-140,-1.3027966956008766E-139,1.162746900850089E-139,6.960209536038364E-140,1.4929987462714207E-139,-2.081431467480789E-139,-2.196299855464771E-140,-2.425424284600178E-140,-4.674167632979411E-140,4.271771408505656E-140,-3.70813429554158E-140,-1.67163332225566E-139,4.798898383594511E-140,2.0236907026182184E-139,1.959537456828939E-139,-8.96833973470266E-140,-1.5690904045517417E-139,-9.048268671876138E-140,6.338461956985216E-140,1.5021122624383472E-139,1.7941321957914412E-139,-1.3687532001144295E-139,-1.7728637177431857E-139,1.988881905967474E-139,-8.3571447612909075E-140,-9.771868183921364E-140,2.0405461113539862E-140,6.180132783224165E-140,-1.815759833020179E-139,-3.170553217629643E-140,-1.707417894519775E-140,9.299367660255966E-140,-7.152879946204013E-140,-1.3473997102295019E-139,-2.127047360172311E-140,-5.511510461465285E-140,2.2190079987027016E-139,-1.7282557773566486E-139,1.186176896241704E-139,-9.571621206347814E-140,-1.0318906066591742E-139,-1.6703000562588642E-139,-6.7954499028355565E-140,-2.14823049067575E-139,-1.6705556327696443E-139,8.234571729608375E-140,1.9640298001053567E-139,-9.797460894955672E-140,-1.1947578917955058E-139,-3.5328585737094756E-140,3.8126423616731984E-140,4.964381999346901E-140,9.79178803586176E-140,1.4684831829311919E-139,-2.2113172280499987E-139,-1.1328500674205904E-139,-1.3965849731207729E-139,-1.5315833006717143E-139,-9.913018587594403E-140,4.823872039867994E-140,8.497352678473354E-140,1.8304085787187288E-139,1.0001348220951788E-139,5.85424185218216E-140,1.681493014711022E-139,-1.0522844946291835E-139,2.531299390978274E-140,-1.4004185822218996E-139,-1.34996892042855E-139,8.666199690717604E-140,-1.7779211038216184E-139,-1.955371305168622E-139,3.1658424819304577E-140,-2.125431526626877E-139,1.6707291264703502E-139,-1.2902515149672623E-140,-7.025118974661469E-140,1.0882769976036284E-139,1.6837938288697963E-140,1.274646207190326E-139,-8.61990492628466E-140,-1.831696688378329E-139,1.438002995816627E-139,2.0497055192101796E-139,-5.667729540488295E-140,3.047937017338524E-140,-1.455875306619448E-139,-1.6328182440402775E-139,2.1063516061001637E-139,-8.957875615033934E-140,-1.0559965863518556E-139,1.341971215129424E-139,-1.0799327633439092E-139,-1.5654944910475995E-139,-2.128158611788855E-139,2.0313798958098147E-139,1.7677290017497385E-139,1.2213504374893593E-139,4.498624553246964E-140,2.007407196189002E-139,-6.010434498746064E-140,1.0719349828999098E-139,-6.806125004116891E-140,3.805946303682827E-140,-1.5213332463969382E-139,-1.7110715616973416E-139,1.833129193264007E-139,-2.724399021425037E-140,8.182553607166577E-141,-1.3503456049202969E-139,-6.924826736225796E-140,9.025903306559614E-140,-2.049774431692772E-139,1.1663710920900504E-139,-2.0594736983272145E-139,2.0958680242450627E-139,1.752177012145868E-139,1.6025199915082882E-139,7.038248192210008E-140,-1.8118164229260482E-139,1.7009006095596838E-139,1.815122664143139E-139,2.1492959090036328E-139,7.449574182896952E-140,1.755273044566146E-139,-8.783842076279576E-140,-1.1121702628199183E-139,2.2037402656630133E-139,1.8176593257007343E-140,6.85938409412759E-140,1.2590408095997649E-139,9.405564694061235E-141,1.7280004082664866E-139,1.6114840361500496E-139,1.2066736994386693E-139,1.5481019854143688E-139,6.739239542615618E-140,7.211360073406918E-140,6.522851633507136E-140,6.029640072372545E-140,1.8875407371021667E-139,-8.743446840465642E-140,-1.112318337615089E-139,5.440255831158395E-140,-2.206705036578915E-139,2.0333330698468184E-140,-4.8531019645752605E-140,4.285079703352407E-140,-4.266683702307657E-140,8.536298015046899E-141,1.4021703443178902E-139,1.6381178289039283E-139,1.5696731921800875E-139,1.1651745597688778E-139,1.0945179233363543E-139,5.86728774917955E-140,-2.905654323790909E-140,-5.592027518125985E-140,2.0839539893115675E-139,-7.66028852954738E-141,-5.272433099265089E-141,6.694971809341181E-140,-6.2457059909428365E-140,-1.2894771914451934E-139,7.744063491533619E-140,-3.4268547644392274E-140,-2.214621682666695E-139,7.962952559036392E-140,-1.4083569082851313E-139,1.2580161549622054E-139,6.681712360516032E-140,1.6894661434010064E-139,1.6574908921327222E-139,-3.625833052685941E-140,-9.833439966671147E-140,1.6076633980668024E-139,-5.699961202616755E-140,-1.604261979485753E-141,4.6330028476258095E-140,-4.43272865680187E-140,7.039487534559518E-140,1.5021236536293536E-140,-4.598951505445289E-141,-7.456268439728725E-140,2.323549430896021E-140,-1.7651868905133143E-139,4.744262818336225E-140,-1.2296882560833352E-139,-5.164351380949995E-140,1.0236553949471266E-139,-5.855786410521568E-140,7.465193510720068E-140,-1.2725370096821735E-139,6.69184145424655E-140,-2.015037939946521E-139,-1.2954547218711937E-139,-9.807934326045982E-140,1.0302318156469456E-139,8.353141678809087E-140,2.9865317573059003E-140,-5.611412232900975E-140,2.108910714949966E-139,-5.3729391390735635E-140,3.4643366964450435E-140,2.053563758435963E-139,1.266260564596111E-139,1.65457412941023E-139,-3.7383218811989572E-140,-1.0754341665492478E-142,-1.020522999011248E-139,-1.1369368467846993E-139,-2.0898409355229086E-139,1.0247602254403973E-139,9.220581292634215E-141,2.1164734088720822E-139,1.8074689214803727E-139,6.848760986626745E-140,-2.9231078127360713E-140,-7.948597008084749E-140,2.0396199619272824E-139,-8.327496804920368E-140,-8.810194237481393E-140,1.4516494240545003E-139,5.606521466689049E-141,-5.379452560837831E-140,-8.846959082971848E-140,-1.023559159770997E-139,-4.653062620430554E-140,1.6360616385021757E-139,1.8049955063644246E-139,-2.171712364285486E-140,-3.2865230828868953E-140,8.80050943027208E-140,1.1796200064801122E-141,1.809000292763586E-139,-1.3783775597840396E-139,5.1128625149702447E-141,6.068886412301892E-140,1.4329068418172165E-139,-7.99692206839582E-140,5.16736458874267E-140,2.1872316888006963E-139,4.286100312338672E-140,-1.951956752472827E-139,-2.191191526326969E-141,-1.705396432435709E-140,2.441688351902434E-140,3.630456292034483E-140,-2.132317521388285E-139,-1.2800254341707615E-139,2.006203328745169E-139,2.2305589956301094E-139,-2.139049647134409E-140,2.7343494597085125E-140,-1.8782822693424927E-139,2.2028621870329523E-139,-7.89103350651723E-140,1.575447504900784E-140,-2.2893491757388163E-140,-1.0346052807360997E-139,-6.186265689087622E-140,-2.8727150699368584E-140,-6.247926602743103E-140,-7.953349487083102E-140,3.2722563828228943E-140,3.590192626255357E-140,3.615299084949998E-140,1.7916701847815545E-139,-2.8776760458108023E-140,-6.854631165389527E-140,-9.082484445858516E-140,2.1204116892623855E-139,-1.7298955413562026E-139,1.2362525998551578E-139,-1.2414124933515913E-139,-7.506944775771918E-140,-4.696894083044809E-141,-2.0693174269364616E-139,9.011443287975435E-140,5.963450998693399E-140,-1.7015185080812753E-139,-8.208996910981517E-140,-2.4430739804927E-140,5.415331649896119E-140,1.241540244090483E-139,9.457134857057034E-140,9.38332112347975E-140,-3.014359164186162E-140,-2.969731238083261E-141,3.496912631957424E-141,-8.33695639592541E-140,1.0626396398043284E-139,1.8112063355173423E-140,-7.18811901357625E-140,1.2975939173905953E-139,-1.0752613847606998E-140,-2.208438812688286E-139,-5.070136104345441E-140,8.150989340745539E-140,-1.8045706093968817E-139,-6.31156060284831E-141,7.089065381909107E-140,-7.315362657845109E-140,1.1172661003635073E-139,8.369787264207233E-140,1.4232529898760089E-139,9.435880364813478E-140,2.0702744080198216E-139,-1.3310269809362763E-139,-6.09669297519321E-140,-9.003407950626925E-141,-2.2126426656080877E-139,2.529646296406221E-140,-1.9004297512499722E-139,-1.3570439070766444E-139,1.443181291751498E-139,-2.0591433777152322E-139,2.3475119653280824E-140,-7.405841335046435E-140,8.276384046929283E-140,1.5187402948522813E-139,-1.635798917546436E-139,-1.1978836401197082E-139,-1.597305450487297E-139,-7.722030911313785E-141,-1.991700562831147E-139,6.253970977706983E-140,3.952799681306912E-141,-9.772012393603107E-140,1.4168232350050408E-139,-1.4570466864946177E-139,-1.2500655853977303E-139,9.959108111398886E-140,-8.169759879170769E-140,1.3972941611972675E-139,2.0358984328528777E-139,-3.915436177487045E-140,-6.559820121166878E-140,9.254138468190355E-140,3.3310294222242985E-140,-2.209388998241249E-139,-2.071647264174772E-139,-2.3923989709578993E-140,-1.1236439933723923E-140,4.0999331338002494E-140,6.712855123692428E-140,-2.192310653919463E-139,7.416864421716677E-140,1.6142010632357408E-139,-4.519954229346042E-140,7.362286689273613E-140,1.8330282508066693E-140,1.6303165477690148E-139,1.722227017259437E-139,1.8217864821254212E-139,7.020683206065621E-140,1.5876091569990605E-139,-1.9646168295410594E-139,2.1620034841101625E-139,2.2251677835062626E-139,1.9659486579435345E-141,-8.749950723721623E-140,-1.69775570714406E-139,6.380979890925975E-140,-3.769415415551109E-140,7.343545096093665E-140,1.9578072156661465E-139,-1.8689511199284437E-139,-1.482776272262259E-139,-1.20240511243953E-139,-1.0799878786902827E-140,2.2162611521771523E-139,4.220674301568973E-140,3.944476165271883E-140,-1.1643428083668746E-139,-8.165123291002133E-140,-6.476908452525543E-140,-8.334838515329685E-140,1.8666892707803485E-139,-9.668218587910103E-140,-1.8474531073671596E-139,1.8439641580876365E-140,1.0880246149089513E-139,-5.338655569992919E-140,-2.5341940592946125E-140,1.4816064520361874E-139,-2.0387185778782657E-139,2.69720499819094E-140,2.1039724986118368E-139,1.1698040101509492E-139,-1.6871393503938997E-139,1.329401875668489E-139,-2.2116085489283316E-139,9.80562384422689E-140,-1.3596667061793768E-139,-7.568578543852053E-140,5.9323011870749055E-140,1.2152733066608611E-139,1.9256451232353186E-139,-8.259862143614924E-140,1.586016151408089E-139,-4.0896068890592043E-140,-2.1788326390211943E-140,1.9135425080193827E-139,-9.792157067166607E-140,-5.144482153067344E-140,-1.735537044389545E-139,-2.194020058803653E-139,4.532834332890294E-140,-1.8775176873425537E-141,1.656297602387424E-140,5.002549416871332E-140,2.086525109041874E-139,1.02447602337984E-139,7.0023239709792985E-140,1.7120518011629785E-139,-9.541809017759792E-140,-1.0870039139132195E-139,-7.9800898997713365E-140,1.5413524107083749E-140,1.8616362962946094E-139,1.8652665433130926E-139,1.3196706621092754E-139,2.030945107137061E-139,1.4333203728374237E-139,3.3005957501564295E-141,1.227206194767624E-139,8.19633075557039E-140,-1.3126556519190186E-140,1.603354240125434E-140,-8.1187342464354305E-140,9.281128024473066E-140,-1.6324794176984059E-139,-5.593189984468262E-140,-2.149502325970379E-139,4.593856464090387E-140,4.8165136707826105E-140,-1.0811029275740247E-139,-4.714335196200427E-140,6.934211949461047E-140,3.5065893793698163E-140,1.6334599329279242E-139,-1.3673752490428517E-139,1.2600541627006142E-139,5.989088468010279E-140,-1.4597459145184662E-139,-1.3761486323036188E-140,2.021319115431548E-139,-1.978816305415163E-139,1.7462909299807424E-139,1.7644753405515275E-139,1.7977504527832162E-140,-2.1540084636662994E-139,8.826534912643335E-140,-6.500030016442607E-140,-2.312702349678625E-140,3.130776001170687E-140,-1.8538457836895388E-140,6.487554200876614E-140,2.168242951160529E-139,8.370546626900156E-140,1.4762392374541103E-139,1.1230570778080061E-139,-6.069316302868346E-140,-5.319001566155731E-140,-6.959773555139088E-140,1.9929827648363705E-139,8.511890478596184E-140,1.7289831618103157E-139,1.6150906676559396E-139,1.7507291174487235E-139,1.0637562634509283E-139,-1.7439343173250284E-139,6.842813802785382E-140,-1.36705862586313E-139,-1.4543866516295989E-139,2.75088252471954E-140,1.3614184520119391E-139,2.043594103894669E-139,-1.1758301187167346E-139,1.3849482685780387E-139,6.690835123255146E-140,-1.4172544593629374E-139,7.1198827644170925E-140],[-0.02568268825492099,-0.025682698441519554,-0.025682690876524944,-0.025682688311281825,-0.02568269228743963,-0.025682690839258473,-0.025682698453567958,-0.025682700641634474,-0.02568269859960303,-0.02568270253561349,-0.02568269841244433,-0.025682703287684676,-0.025682701453419585,-0.02568268909212142,-0.025682692313435906,-0.025682695619091134,-0.02568269289455934,-0.02568270411219403,-0.02568269872515688,-0.02568269364606455,-0.025682689659484087,-0.025682709030860392,-0.025682707788372356,-0.025682709610973683,-0.025682694023302366,-0.025682689918142626,-0.025682695459020556,-0.02568268879362,-0.025682693147984527,-0.025682692898944637,-0.025682703609108477,-0.0256826883094089,-0.025682699732426196,-0.025682699155100488,-0.025682692190274685,-0.025682699180151473,-0.025682710906349507,-0.025682699598221833,-0.025682710212478595,-0.025682689073285907,-0.02568269351971386,-0.025682708647235243,-0.02568269757544202,-0.025682690578984403,-0.02568269628919032,-0.025682699020559488,-0.025682692757291313,-0.025682693430458745,-0.025682699739040173,-0.025682688243438008,-0.025682697413707045,-0.025682690580901602,-0.025682697552956064,-0.025682693113274563,-0.025682688745357472,-0.025682697420743607,-0.025682705185269453,-0.025682691092621095,-0.02568270697128192,-0.02568270320483996,-0.025682700302431808,-0.025682706008396675,-0.025682688999340657,-0.025682697672957458,-0.02568268974402881,-0.025682692420776896,-0.025682702230477236,-0.025682691205236023,-0.025682690006528553,-0.025682689509965873,-0.02568270863802873,-0.025682704014410238,-0.02568270703709501,-0.0256826934328909,-0.02568270866841945,-0.0256826971200069,-0.025682697632394686,-0.025682694278053902,-0.02568269241383862,-0.025682693787699433,-0.025682688295399065,-0.025682692038160013,-0.02568269334405089,-0.02568270040020352,-0.02568269438391382,-0.025682706789408344,-0.025682698465992432,-0.02568270107230522,-0.025682688992831174,-0.025682696807439818,-0.0256827107610889,-0.025682707938426474,-0.025682693119067897,-0.025682695487149593,-0.025682693223549147,-0.025682694316654486,-0.025682693988128953,-0.025682698581824693,-0.025682688257380706,-0.025682696046964364,-0.025682690361174678,-0.025682696601567998,-0.025682692982494034,-0.025682690330990448,-0.025682690043525986,-0.02568270349132395,-0.02568269661608409,-0.02568269863702449,-0.025682699875400825,-0.025682698801148967,-0.025682708953112185,-0.0256826889157641,-0.025682697097772485,-0.025682693784843873,-0.025682691995557956,-0.025682703581715177,-0.02568269489298682,-0.025682692604474294,-0.02568268937535741,-0.02568270685870809,-0.025682707797855624,-0.025682700823866565,-0.025682688207445542,-0.02568270661783251,-0.025682710920142217,-0.025682696672906655,-0.025682693678989694,-0.025682688907335122,-0.0256827006738674,-0.025682688282293725,-0.025682697495714425,-0.025682693557082067,-0.025682699149880965,-0.025682697751287595,-0.025682701204387808,-0.025682697435841898,-0.025682703375674996,-0.025682688909977443,-0.025682696318816593,-0.02568270312625613,-0.02568270576299663,-0.02568269259990064,-0.025682690042801767,-0.025682705825241785,-0.025682693701119384,-0.025682696167962024,-0.025682697540112927,-0.025682688248082564,-0.025682692550490095,-0.025682690141475294,-0.02568269576907054,-0.02568269068569019,-0.02568269011417209,-0.025682695661887158,-0.02568269967112875,-0.025682693946459476,-0.025682700314623066,-0.025682692529102966,-0.025682697010712872,-0.02568270835131865,-0.025682688398271553,-0.02568269149331188,-0.025682693598703434,-0.025682691613189517,-0.025682695573420348,-0.025682695861872676,-0.02568270102749158,-0.025682689254202574,-0.02568271523275278,-0.02568270398315048,-0.025682693825774185,-0.025682692417964285,-0.025682708927317124,-0.02568270864436202,-0.025682695415835326,-0.025682698891943113,-0.025682691615776375,-0.0256826976083491,-0.025682688256177214,-0.02568269615544314,-0.025682696152205205,-0.025682693362640046,-0.025682698448027588,-0.025682712728081817,-0.025682690044765925,-0.025682707671354922,-0.025682697678148785,-0.02568270437026194,-0.02568271028348398,-0.02568270383410334,-0.025682692178040235,-0.02568269409569775,-0.025682702232712455,-0.02568269132119548,-0.025682695324774334,-0.025682690137946846,-0.025682688239575067,-0.0256826944751354,-0.025682689943742523,-0.025682688530458287,-0.025682692052107412,-0.025682698786163045,-0.02568269492250961,-0.02568271520297094,-0.025682690299012982,-0.02568269835938666,-0.02568269730169265,-0.025682697458587516,-0.02568271059637333,-0.025682688772506623,-0.025682694982590265,-0.02568269305497112,-0.025682689443048065,-0.025682700671832995,-0.02568269035502906,-0.025682699739963923,-0.025682689106683924,-0.025682710660574516,-0.02568270823150874,-0.025682702234927274,-0.025682692015914176,-0.025682701535295824,-0.02568269540600144,-0.025682688602540985,-0.025682700611784386,-0.025682691270606618,-0.025682693177138956,-0.02568268825934311,-0.02568270460912372,-0.025682694957127935,-0.02568270593926499,-0.025682692695538942,-0.025682719149928798,-0.02568269567308684,-0.025682697917472633,-0.02568269674852954,-0.025682697832785657,-0.025682701618560927,-0.025682694343042954,-0.02568269177673979,-0.025682702369380323,-0.025682702469271856,-0.025682692624821972,-0.025682691869734802,-0.025682695758573973,-0.02568268821785177,-0.02568270308805645,-0.025682689765797847,-0.025682694324076525,-0.025682691685146555,-0.025682697723864747,-0.02568268911711785,-0.0256827145175884,-0.0256826943262875,-0.025682695798693134,-0.02568270644550796,-0.025682698171814823,-0.02568269532632484,-0.025682688687772223,-0.025682694259809194,-0.025682689473645926,-0.0256826909573175,-0.025682697555861982,-0.025682694400058995,-0.025682698583254285,-0.025682689047003656,-0.02568270596445829,-0.025682699331635767,-0.02568270082781104,-0.025682691619120335,-0.025682708798671607,-0.025682698288443905,-0.025682694361799627,-0.02568270823393256,-0.025682690959410486,-0.025682697291314144,-0.025682688237707054,-0.02568269988311046,-0.025682691562623827,-0.02568270192931749,-0.02568269466868598,-0.02568270485915502,-0.025682694923004425,-0.025682696161651187,-0.025682695890042944,-0.025682710132615427,-0.025682702984671336,-0.025682702296509183,-0.025682689172046642,-0.02568270094887779,-0.025682691483423184,-0.025682701067724224,-0.025682694303259736,-0.025682694999087204,-0.025682688209932372,-0.025682701594354214,-0.025682689591173005,-0.025682693695967394,-0.025682690891092503,-0.025682696767717273,-0.02568269363832399,-0.025682700691844782,-0.025682693710036657,-0.02568269926381037,-0.025682705000161274,-0.025682695307144197,-0.02568270451797206,-0.025682688657395765,-0.025682693607495918,-0.025682692125771962,-0.025682690677907166,-0.025682691757845405,-0.025682693776532185,-0.025682688834580695,-0.025682688529770292,-0.025682714048417613,-0.025682696614330213,-0.025682691757931673,-0.02568269705861504,-0.02568270027106822,-0.025682703081214297,-0.025682693730623343,-0.02568270862995217,-0.025682690680375216,-0.025682705246459128,-0.025682688217480043,-0.02568270149376163,-0.02568270287194128,-0.025682702571269617,-0.025682695661067838,-0.025682710156345975,-0.025682698401596885,-0.025682702384965724,-0.02568268823589501,-0.025682701494474484,-0.02568270120623821,-0.025682700500481676,-0.025682699957334115,-0.02568269657874143,-0.02568269975109533,-0.025682699776171183,-0.02568269182473546,-0.025682689603550784,-0.02568268818239684,-0.025682709114346673,-0.025682689461465427,-0.025682697308620276,-0.02568269101614431,-0.025682689417837683,-0.025682693090916548,-0.025682699939419098,-0.025682693155426737,-0.02568270703156338,-0.025682700247779976,-0.025682694444873606,-0.025682701419379367,-0.025682688607843573,-0.02568269034785765,-0.025682691729560152,-0.025682690426562925,-0.025682697256098085,-0.025682693191000406,-0.025682696186013057,-0.02568268887933192,-0.025682711286943858,-0.02568270276859209,-0.02568269800403215,-0.025682698952251413,-0.025682697073218786,-0.02568269688806783,-0.025682688472188252,-0.025682712399588265,-0.02568268860339498,-0.02568270351385422,-0.02568268823401656,-0.025682693682619228,-0.025682699575768294,-0.025682691575181226,-0.025682694886401507,-0.02568270245123557,-0.02568270161800211,-0.025682709829778116,-0.025682694422046345,-0.0256827055612666,-0.025682695717617898,-0.025682694501356854,-0.025682707630529617,-0.025682691638242522,-0.02568269859237517,-0.02568270748287367,-0.025682693136772267,-0.025682693700309987,-0.025682688202205116,-0.025682698742747992,-0.025682688878265563,-0.025682700634403043,-0.025682690730829162,-0.02568269513303831,-0.02568269259821471,-0.025682707363567956,-0.025682689564264165,-0.025682703319433942,-0.025682693532372344,-0.025682693622711618,-0.025682697745174045,-0.025682688549351313,-0.02568270136013235,-0.02568269137302278,-0.025682690200194338,-0.025682696355849775,-0.0256826892009837,-0.02568269575950358,-0.025682688807933455,-0.02568269944194722,-0.02568269661788747,-0.025682695570383395,-0.025682697873404724,-0.02568270320621503,-0.025682701295147388,-0.025682701558922914,-0.025682701687567016,-0.025682690202297454,-0.02568269890816919,-0.025682688201750813,-0.025682698529201835,-0.02568270003869197,-0.02568270828209859,-0.025682700012155325,-0.02568270374529711,-0.0256827002734532,-0.025682704571547685,-0.025682693781781993,-0.025682697733336143,-0.02568270123206615,-0.025682698494055033,-0.025682714563567043,-0.025682697459729727,-0.02568269283757403,-0.025682699086929082,-0.025682692627880272,-0.025682693145705964,-0.02568268820887266,-0.025682705133406702,-0.02568268877324133,-0.02568269938777447,-0.025682690459929457,-0.0256826944351102,-0.02568268906337483,-0.02568270073041561,-0.025682692207052358,-0.025682698529164473,-0.02568270045565878,-0.025682694730079777,-0.025682698312262362,-0.025682688523634357,-0.025682700417625312,-0.02568269950159207,-0.025682698863086644,-0.025682695537699828,-0.025682692216288633,-0.025682699154814824,-0.025682688729060488,-0.025682705266623928,-0.025682708462657317,-0.025682696472524403,-0.02568269043856655,-0.025682695164520625,-0.025682707027741516,-0.02568270021997416,-0.02568269661948804,-0.025682689998488852,-0.025682694152879843,-0.025682688220789607,-0.025682697869680218,-0.02568270128908007,-0.02568270662263782,-0.02568270119196191,-0.02568270336810206,-0.025682692598587343,-0.025682700770922207,-0.02568269738798358,-0.025682695638877578,-0.025682699899880947,-0.025682695610759292,-0.02568270544808007,-0.025682696551956038,-0.02568269661028719,-0.025682703797177516,-0.025682690351661878,-0.025682692230927326],[1.1173706381979808E-139,-3.8622273291906913E-140,1.2848182850601418E-139,-1.6717371452581658E-139,-1.1336048502849943E-139,5.04359070233429E-140,-1.4906076203005084E-139,4.805250419708803E-141,2.1427026785228044E-139,-2.1655804656517037E-139,-2.107403300083235E-139,5.490680962127518E-140,2.100046094470328E-139,1.5072306111091576E-141,-2.108959498052979E-139,-1.0797984752211612E-139,1.859152897942127E-139,-1.5541440870772899E-139,-2.034107556583521E-139,-1.9445761010200436E-140,8.80267819417306E-140,1.2955740662900359E-140,7.722160188280319E-140,-4.102047793694002E-140,1.773340938707909E-139,2.1832192095888715E-139,-4.3781380212512455E-141,1.960230030137155E-139,1.587502895492767E-139,-1.8226094470861575E-139,-2.0297828625863072E-139,1.1897905407813658E-139,-3.446989052712401E-142,1.0307750568766362E-140,-1.7566634152382013E-139,-9.239458191365516E-140,-1.494468950497766E-139,-9.220465824203963E-140,2.1070863025706632E-139,-1.9002592214274366E-139,-2.7585079523656833E-140,-4.487958365167609E-140,1.0798040536255058E-139,7.021433160486843E-140,3.738261762885342E-140,2.5947352931413535E-142,8.125814370840757E-140,-1.861145819128141E-139,-1.3370758125645778E-139,-1.5260184767351316E-139,-4.194146881426626E-140,-1.0247365081558576E-140,-6.612560941115973E-140,1.2326458974124896E-139,-1.0131817494613263E-139,1.6477739721055088E-139,3.516875836035088E-140,1.9681988915848704E-139,1.116289257034695E-139,-9.4404548814912E-140,-3.7595414395750973E-141,-1.786531113790715E-139,1.838069515008919E-139,9.659377477373766E-140,-9.871875988555467E-140,-2.084570865225736E-139,-2.021395413441943E-139,-5.065885870249389E-140,1.2936130839285678E-139,1.8011730738698733E-139,2.0479617258916927E-139,2.0894411071442206E-139,1.991231035226147E-139,2.018754709380407E-139,-3.674586400295128E-140,1.714463959771877E-139,1.5905575539339552E-139,-4.695394820860865E-140,2.461010297763578E-140,-2.2524810717098294E-139,1.1599986615198003E-139,-1.8503898121981773E-139,-1.471644037814614E-139,1.2208279722533622E-139,-2.114407228189414E-139,-9.981741154855998E-140,1.0215502213188323E-139,1.695541427503404E-139,-1.6907889157145217E-139,-1.3385370896522524E-139,2.086352682264611E-139,4.5586742105373405E-140,1.3107051997418737E-139,1.2596467831055827E-139,1.6099706268583741E-139,-1.2070241724242722E-139,6.8184019852322885E-140,1.1575467020529833E-139,-3.869859842682144E-140,2.0986558347762108E-139,4.30466665805135E-140,2.9809040257877346E-140,-6.625627440652909E-140,4.519028459364043E-140,8.596580886464408E-140,-1.492581590787306E-139,1.6605049425587366E-139,2.003194360599661E-139,2.1216162280785027E-139,-1.6175806826487966E-139,-5.317568109188728E-140,-1.8010614788515602E-139,-8.465155610200539E-140,-1.7412128410066694E-139,4.424373823564003E-140,3.753400552437702E-140,-3.4456183078008446E-140,1.2865907341574837E-139,-1.7413852018684105E-139,-1.6474284095216006E-139,-1.8369242260294222E-139,1.712449300918795E-139,2.1364979080310596E-139,3.352201514881564E-140,9.095210774965617E-140,1.1248468861866715E-139,-1.1811966644731932E-139,-2.6554451823294605E-140,3.7076585191924895E-140,1.960197743630859E-139,5.340527704507245E-140,-7.081677153025926E-140,-7.610711312604267E-141,-1.5807086507407522E-139,-2.2615825730916237E-139,1.714552475123687E-139,9.512074991808362E-140,-1.4463565889462315E-139,1.9128295147935522E-139,-4.868374375648681E-140,-1.2774018902929934E-139,-2.0416294103057624E-139,-1.2304132240468612E-139,4.616965073863921E-140,1.849121059561325E-140,6.582120795702317E-140,-1.6965692775292067E-139,1.3336675399109744E-139,1.940945019386877E-139,-1.587424201558177E-139,-1.9589379689293083E-139,1.7951712914129165E-139,1.9803523609019064E-139,1.508558505042164E-139,-2.637051960831702E-140,1.834170276727335E-139,5.699774029955852E-140,1.509372428025353E-139,1.7151835480458655E-139,-1.5167163217883409E-139,8.715285084911144E-140,-7.299077215479053E-140,-1.503558747345342E-139,6.920342626744268E-140,-1.375794227603941E-139,1.7811919187110895E-139,-1.6416303803087196E-139,2.800668396508001E-140,-6.658292447337149E-141,7.765955943512767E-140,1.8747774457853463E-140,-2.1720984492719903E-139,-1.0383695689991975E-139,-1.4406482752169413E-139,2.1729966561164634E-139,1.293818685090244E-139,-2.0488355358397213E-139,-1.0268852175351324E-139,8.35542902000894E-140,-8.58872280027689E-140,1.8147666728597534E-139,-1.6609627803630993E-139,6.483447852341702E-140,-4.780426334029468E-140,-3.3045310908414133E-140,-1.8106490339698546E-139,-8.458843852099052E-140,1.3919929003738059E-139,-1.42450505120116E-139,-1.2601037422160235E-139,1.5267646813868453E-139,7.553270804717612E-140,1.3203091171274803E-139,-1.016650909038335E-139,1.3867752935687439E-139,1.798183624648003E-139,1.67696041099442E-142,-1.9100600371139198E-140,1.4187006025079634E-139,-1.1359765266625201E-139,5.286907151027335E-140,3.849625834575094E-140,6.6646656042099015E-140,3.6798988326486584E-140,1.1442445712087125E-139,2.0681594251809228E-139,9.66072682781264E-140,-6.777100673985762E-140,3.0461696577975785E-140,-1.3210636972715642E-139,7.236344117651551E-140,1.054644013773194E-140,-6.950870125709643E-140,-5.069411071294019E-140,6.143090153063927E-140,1.4668186675498509E-139,1.818988724239093E-139,-2.0657611024020897E-139,3.697037715638494E-140,-4.570203112761605E-140,1.0394120935715588E-139,1.4728110659903329E-139,1.5420919571480517E-139,-2.246976791482774E-139,1.1326151290234803E-139,-1.5779286595564207E-139,1.9437418805591196E-139,-1.0861712874054288E-139,-2.1224963206355905E-139,-1.7363219520158852E-139,-6.93917193206553E-140,3.9206901101611304E-140,-6.519407636374431E-140,2.0505226332529143E-139,-5.472594282938935E-140,-2.1704183685901114E-139,2.1642137473186605E-139,2.1585710528779756E-140,8.542314169208164E-141,7.568387380038364E-140,2.1108759350848957E-139,-1.6157377114467333E-139,9.283267355893685E-140,3.014971658404426E-140,3.880655450746779E-140,1.3904596017251794E-139,6.545687926361519E-140,-1.43246387219193E-140,-6.280761574310321E-140,6.490142074535117E-140,5.906491439615034E-140,-7.052415791492001E-140,-1.3832287174369999E-139,6.9957279358767345E-140,1.5840971578902665E-139,4.051765694752087E-140,-1.876712090527073E-140,1.144513210928152E-139,-2.2032009712074866E-139,1.7006520487000683E-139,-6.688825882760392E-140,6.111695266242913E-140,2.9463050293428056E-140,-1.4349437718504685E-139,2.1111295446916195E-140,4.54317159837355E-140,2.014993695170397E-139,1.6681248549937E-139,-1.4292654737925856E-139,-1.9499824232541642E-139,2.149030242396647E-139,-2.205953567982463E-139,-1.5684941514036628E-139,-1.5347939947820118E-139,-2.4690698723084115E-140,-6.751673604365013E-140,6.392627534142761E-140,1.3394447892079034E-139,-6.905765445889818E-140,-1.3999898355329888E-139,1.0033031649590678E-139,-1.139768329620393E-139,1.7583648956667375E-139,-5.413465745711024E-140,-7.737544895965535E-141,8.377650372194996E-140,-2.955325360819142E-140,-2.0347113263258857E-139,-1.6818213570267867E-139,-1.2300280974229169E-139,-2.278934794332755E-139,1.2912706352795248E-139,1.4558916368717905E-139,6.0613606143617255E-140,-1.979289009603044E-139,-1.98269068868479E-139,7.555887775304248E-140,-1.5746898628259529E-140,5.0981313032048155E-140,6.786497940252821E-141,-1.4366184764281432E-139,1.0270995289383392E-139,-3.860410631133829E-140,1.5278879479627005E-139,-1.946257040134768E-139,-1.978929817665436E-139,-1.7889094638110693E-139,-3.9958279222587854E-140,-1.5356302339067017E-139,1.884520804999163E-139,4.715027609445986E-140,-9.984489210721287E-140,-8.627876870781663E-140,7.700724813712941E-140,3.270293760048693E-140,1.3215540038782418E-139,-1.366379003660347E-139,1.5965317386638767E-139,3.082550175225298E-140,-1.5771855571462816E-139,2.135393750767885E-139,-4.53936633427391E-140,1.308542122959119E-139,-7.43080746403371E-140,3.9348187681579515E-140,-2.210173947140919E-139,-1.9531284424795818E-139,1.808866200078739E-139,3.8555820054168325E-140,1.6071428852980253E-139,-1.1703218749576427E-139,9.906790000872704E-140,-1.2610159967247704E-139,2.0672751878811847E-139,-2.223431766929677E-139,-1.4470834627752989E-139,1.7131788221434553E-140,-6.223841308959847E-140,-6.683635376809303E-140,1.0028238517562574E-139,9.389902239687014E-140,2.517739114830601E-140,-1.328179401616237E-139,-1.652054993427979E-139,-1.2649766775160918E-139,7.244009889489504E-140,-8.629879345866732E-140,-7.181467653207273E-140,1.8869678220007413E-139,-8.53168337091593E-140,2.1881100256399454E-139,1.6810664742672293E-139,7.06193307057257E-140,5.093889579448921E-140,1.796514591703034E-139,-1.6753658580211703E-139,1.895424304408849E-139,1.5209210155545911E-139,-1.53002913145135E-139,-2.2222158325000186E-139,-5.565106161952677E-140,-2.216520681902676E-139,-1.096075524965507E-139,1.719894138409264E-139,-1.5040983314524254E-139,-8.528438061181654E-140,-3.0309110072519426E-140,2.4673652107552292E-140,5.786656479607747E-140,1.794134437273785E-139,-1.3693087574614581E-139,-2.0709945598156735E-139,-8.37944697176311E-140,-8.89670705560661E-141,-2.015725745461823E-139,-6.298760077317267E-140,7.394691146913008E-140,-1.6823463091796898E-139,1.7137090512841167E-139,-1.4436459415172911E-139,-1.9223357697563074E-139,-7.20314731297512E-140,-9.01030223559912E-140,2.1339362433909354E-139,-1.5534785305010895E-139,-9.526962278257384E-140,9.227847808156624E-140,-1.9563901982935888E-139,1.2324464791699045E-139,-1.5101399530771037E-141,1.8547771484994582E-140,-2.1752008035382244E-139,4.6454604240495635E-140,3.588951006690537E-140,4.621560748033337E-140,1.7943437690463433E-139,1.3849547974255722E-139,2.0865032667986993E-139,2.1782300734912427E-139,1.2230407672279783E-139,-1.6579706650206571E-139,1.140283583681563E-139,-1.1444984032797673E-139,1.9364019593574466E-139,1.4686594572451401E-139,5.161410453210187E-140,2.4075717618605275E-140,-1.846568891320411E-139,9.570605752944192E-140,-6.726511256627374E-140,1.3828812497971867E-139,1.389548710369648E-139,-1.6078559580143572E-139,1.0925785759419224E-139,-7.396542443817023E-140,-6.607397807417482E-140,1.1556726009578833E-139,-8.927803053965323E-140,1.5783118952890993E-139,1.0635988833744457E-139,-8.694273218209707E-140,1.2447451929594633E-139,-3.993517124588742E-140,1.6257235627247583E-139,1.0107062495492902E-139,-2.5218638766472787E-140,-8.41185177957134E-140,1.5348208437955007E-139,-4.901725794431963E-140,-1.8529790451523724E-139,-9.760685722968862E-140,1.9240694286572447E-140,-3.220249621218488E-140,-2.6852523404595394E-140,-1.2913093134490227E-139,-2.0138539355357316E-139,-1.851443905240436E-139,4.231308269625942E-140,-8.440766860388324E-140,-1.1670772823798954E-139,-9.047159437917077E-141,-1.984311828869718E-139,1.824805436011883E-139,1.4961161325479068E-139,-1.2209734568862143E-139,1.4892205385260304E-139,7.126966986828747E-140,1.665996796768604E-139,1.754901581073075E-139,1.4519761808264274E-139,-8.257416095504448E-140,7.021993028961293E-140,2.607398799202045E-140,7.33050243198344E-140,1.2351779102742463E-139,1.4719322384954162E-139,2.710434768166352E-141,2.1504904711346678E-139,-5.729825333792297E-140,4.606950040350544E-140,1.0563531384252594E-139,-2.098619375652006E-139,8.820957329929923E-140,-1.084688137477242E-139,4.432887581766577E-140,-1.1708153323404569E-139,1.219463954551307E-139,1.946159522671544E-139,-1.77995602434163E-139,1.880146156558464E-139,-7.260644989675404E-140,1.7742771989409915E-139,1.3984042297770897E-139,1.874857771197707E-139,1.097060375625768E-139,-4.2080753517061245E-141,3.3708812932044188E-140,7.950564341297272E-140,1.8943860678801023E-139,8.465662194919606E-140,1.761351103037153E-139,6.145929158243481E-140,2.2182449795529717E-140,-1.606996577078302E-139,-1.690107175804291E-139,-1.9901727363760037E-139,-2.0136519850900444E-139,1.8682669884657732E-140,4.54198018149138E-140,1.9904774490287626E-139],[5.391098218269117E-140,1.0516823885325078E-139,-1.1116154873013634E-139,-1.753908846945749E-139,-1.3384056409441147E-139,-2.271840926530073E-140,-1.5129653271664096E-139,-9.071534434598194E-140,-5.478090014019711E-140,-2.0233898435940728E-139,1.0703202789564248E-139,7.596084277052554E-140,-2.7567634925767347E-140,4.708605880960936E-140,3.6087431541689363E-140,-9.18135448345275E-140,-1.5916466958179995E-140,-3.8924235730643274E-140,-3.833989125253642E-140,6.080780832116786E-140,-6.344215329653516E-140,-1.2768667250117138E-139,-1.7712506017639917E-139,-1.487457876037502E-140,1.357949704003191E-139,-2.1193007014899388E-139,1.9098417263899477E-139,-3.2991449947470724E-140,9.756773142587466E-140,2.141039501613173E-139,-7.887796464528865E-140,1.3327569757211388E-139,1.380658764442963E-139,1.985054796840325E-139,1.8080620634973157E-139,-1.7491203483490783E-139,2.2621777167128807E-140,3.157687448902424E-140,2.067032241855789E-139,1.050239634093535E-139,1.2982512812881638E-139,1.4426000398229606E-139,5.150049743523317E-140,1.132925118357203E-139,-1.3495773069206804E-139,-2.1862687685874855E-139,-9.483188985624413E-141,6.518103781908793E-140,7.664400930002021E-140,-9.244024899955248E-140,7.391892832905165E-140,9.03248301602801E-140,-2.1309629975951664E-139,9.009343316311432E-141,1.786157642379012E-139,-8.011459464556923E-140,-2.1421273084797124E-139,-2.1556224361261065E-139,-7.916846322712659E-140,1.062974626902231E-139,-1.0839150788228289E-139,3.464636280276253E-141,1.528003094262054E-139,1.185541625775297E-139,-1.4953451045109295E-139,1.3522612685661707E-139,-2.0026579422840098E-139,-2.016810171640969E-139,-9.00598955594245E-140,-2.7665650487357394E-140,-1.761941723706353E-139,5.878592544315201E-140,-7.63304671941625E-141,-6.869337876400058E-140,3.544786775549688E-140,-2.66494003372074E-140,8.838889251730704E-140,3.9353060657354467E-140,2.0394759069216214E-139,-2.017932815911428E-139,-8.471927796709963E-141,-1.216140690939341E-139,1.31044000258345E-139,8.411326736138437E-140,-1.0481343288210457E-139,-8.503617813009783E-141,-1.5274870704005764E-139,4.9947791060484025E-141,7.892192567375952E-140,-1.697779379487045E-139,3.948282731119637E-140,1.1569217699612144E-139,-3.21265739719624E-140,1.9338492615230925E-139,6.503335168770267E-140,3.382042767267757E-140,1.6247867903026903E-139,-2.194670799279817E-139,2.789207903689149E-140,1.4047108871252237E-139,-1.2344119017259961E-139,-3.6607427186043747E-140,1.53919821192855E-139,1.3436617099394483E-139,-3.9425542765086467E-140,-1.803741653690116E-139,-1.2166536216915323E-139,-1.0652411215190504E-139,9.527415632362844E-140,1.0038602821431066E-139,1.784307034952122E-139,9.511357002775634E-140,1.627295497937792E-139,-1.4920849345710367E-139,-7.201775703971302E-140,-9.494661612873348E-140,9.960006154276485E-140,-4.837077726131714E-140,-1.2775018790024709E-139,6.903656271685247E-140,-2.120018828524451E-139,5.825783313295058E-140,5.680039641001061E-141,5.607394060145589E-140,1.258466967579746E-139,-1.973944213095938E-139,-2.3633615086137244E-140,-6.509855110156043E-140,-1.527802877048822E-139,-6.582461113464919E-140,-1.673566596460176E-139,1.0176980891299046E-139,-1.5846455283192078E-139,-1.6439886515563767E-139,1.930441464638749E-139,-1.9989634103696298E-139,-1.749055038876762E-139,-1.4093829819457331E-139,-1.7879344411354E-139,-1.902660781259381E-139,6.452405394252613E-140,-1.876744363633999E-139,1.9378626826093077E-139,7.207921937252994E-141,1.8258653956809583E-139,1.739791672520704E-139,-7.268982984964918E-140,-1.5628235003121053E-139,-1.769277255040632E-139,5.968724814796902E-140,2.00162061201368E-139,1.739640327955647E-139,-8.669935285128854E-140,1.4415067477086392E-139,1.2532224795098982E-139,7.492011374021353E-140,-9.707613333779472E-140,-3.5629189538099054E-140,2.0535835290115807E-139,1.311491371897154E-139,1.5685883569822712E-139,1.860673087992785E-139,-1.8161425551715706E-139,1.6134312246775141E-139,8.309353855274679E-140,2.389367591787618E-140,9.252678808925029E-140,1.9518901763493068E-139,-2.6379839245349955E-140,-7.06169823968368E-140,-4.968165190073002E-140,-1.1809285704458224E-139,-9.714494247767887E-140,-1.7740591020084083E-139,1.7916549117658912E-139,-1.3220755846904447E-139,-2.5614545123153474E-140,-1.8972930444477534E-139,1.7843370209969644E-139,2.654937990169255E-140,7.015342122047866E-140,5.980361173836147E-140,-2.1341832303274103E-139,-2.0486032764120992E-139,3.3582517021279055E-140,1.676368094005633E-141,-5.822718703433234E-140,1.4880295580756091E-139,-8.514784837727225E-140,2.9560446674183216E-140,1.4918089369956357E-139,-7.919754851877694E-140,-3.5207703013520064E-140,9.74510357284709E-140,-1.1721814637551991E-139,-1.5802290982070275E-140,-8.841583788953886E-140,-1.8468194886390413E-139,4.60125004849888E-140,6.677208677493105E-140,-1.689050783172216E-139,-1.8217783399429615E-139,-1.837677612988014E-139,1.0029800568191126E-139,1.005340611654247E-139,1.856573088300951E-139,1.6006408595799926E-139,-1.7185028523389078E-139,-1.0803309700494851E-139,-1.050239247430298E-139,-1.2836699492135812E-139,-1.2506505429034848E-139,-2.0840440070054028E-139,-1.3752340026560043E-139,-1.5268594541133993E-139,2.2134218705129297E-139,2.346951108606368E-140,-1.9480004104702092E-139,-2.218300520987555E-139,-1.7338766780782031E-140,-1.00258371272097E-139,-2.11173055009394E-139,-1.6134501965766027E-140,3.5618109846469247E-140,1.8617730952536725E-139,9.74704031817877E-140,-1.979181697025012E-139,-1.3326519688697445E-139,-9.025328525180348E-140,-1.1749749448055993E-139,6.919852957953556E-140,3.7605677482059067E-140,-1.8068662058423016E-139,2.0765901314976286E-139,-2.039902033688408E-139,-7.252193288775261E-140,1.5314606002872526E-140,4.309348590087048E-140,1.7719300103945358E-140,3.1410916623006627E-140,-1.0513308049273346E-140,-1.093987174166945E-142,-4.500818781153264E-140,2.056881426253011E-139,-3.748204536666937E-140,2.1761719023031055E-139,-3.893725556904738E-140,-1.7173376362276175E-139,1.1985160920844395E-139,1.1527590333259606E-139,2.033899712659474E-139,1.1241638258123528E-139,-1.18490926466053E-139,-8.8977124186898E-140,-7.911740266011728E-140,1.5350619999936205E-139,-2.1744916536407448E-140,-1.3568351269579392E-139,2.5568355411940813E-140,-9.251403186871407E-141,1.2309585739060623E-139,6.711588341476359E-140,1.766680831881268E-139,-2.0544890829521484E-139,2.377649014329924E-140,-1.7911211268902004E-139,8.608920959894162E-140,1.2264642087847048E-139,-1.1392625626524529E-139,-9.019014314757684E-140,1.98239368590537E-139,2.1284811285784245E-140,-3.6159342908346486E-140,-2.0234551012331094E-139,-9.295989374445858E-140,-9.205562218479505E-140,-1.4737559272705721E-139,9.15360760134138E-140,-2.2117822437300615E-141,1.3527568380905125E-139,-9.362872062103819E-140,1.92235941253851E-139,-1.4061847209728283E-139,-1.8698514669353714E-139,-3.128871277969325E-140,2.027810811867318E-139,1.744857710495692E-139,3.5155012376303573E-140,2.083912947013897E-140,2.1788088427312667E-139,9.721916962778536E-140,-1.595094492054239E-139,-1.222412013479643E-139,1.281031243383188E-140,-1.9680102286234477E-139,1.2708723305647056E-139,1.472646737130828E-139,1.896735903996141E-139,2.1499745374013953E-139,-1.9969907649834217E-139,-6.718139460991702E-140,6.838074325955071E-140,-1.4841794402388773E-140,1.5584257107224472E-139,2.831400789410257E-140,-1.06632225378307E-139,1.6680969964428632E-139,1.1310981309306902E-139,-1.1332843508965797E-139,2.409058447722408E-140,-1.8944965708699602E-139,1.9944610150904163E-139,9.462703451225346E-140,1.4671740888534984E-139,3.6738747771427123E-140,-1.9598301073032206E-140,-1.081287654937806E-139,-1.3941008167769722E-139,-6.450775824895928E-140,1.3471400129917374E-139,-7.0216805475563765E-140,-1.6033804443666358E-139,-2.1399886389780254E-139,1.648318865218101E-140,-1.0012576762085715E-139,-1.4072787706060702E-140,-1.853553660876376E-139,-2.098084704186589E-139,8.968433704689657E-140,-1.8364257978867237E-139,1.9476957172112772E-140,4.835080462880866E-140,-1.3804838101938774E-139,1.5269465181365718E-139,1.8594715861079477E-139,-1.526429562235031E-139,-1.9505525697168434E-140,-2.1808197430738938E-139,-1.8425605808040545E-139,-6.459305781834657E-140,-2.1406482410180453E-139,1.1537998571427857E-139,1.0775561791770665E-140,3.473333283522696E-140,4.766973678044183E-140,4.854167291684892E-140,9.5122547703437E-140,1.830909736969043E-139,-1.0821362389593608E-140,-1.1188965997766346E-139,-2.177492540446826E-139,-1.4575911983558695E-139,1.2028400779415203E-139,2.030034430255004E-139,2.0850100998472027E-139,-1.0783030545684844E-139,1.6725259452896951E-139,-7.822518220442735E-140,9.506560380476364E-140,1.1884851553468508E-139,-1.707408837031475E-139,-1.1944353566410247E-139,8.875453075595235E-140,-1.3827880441780662E-139,-1.8047146462411224E-139,1.5943171677396863E-140,2.142249951287541E-140,5.902220697451567E-140,7.336225862124488E-140,-5.765382072986543E-140,-8.143008033825601E-140,-4.95875284608015E-140,1.1770071760721406E-139,3.708185867445394E-140,1.408327305635709E-139,1.8549495563653692E-139,-8.292939770110506E-140,1.078559150978165E-140,1.8770142887254353E-139,-1.3586218775430358E-140,8.0710071314231975E-140,-7.530702663561706E-140,2.099581979137975E-139,-1.3235024531477734E-140,1.3637933135358306E-139,-3.1666471309428654E-140,1.3264903194891133E-139,1.0458106669181436E-139,-2.1047045980567635E-139,-1.5595412993208917E-139,-1.2885311697268E-139,1.5728679488968233E-139,3.9789882838589745E-140,3.670815457188484E-140,-7.450440903576854E-140,5.035223483286478E-140,6.274378791658688E-140,-1.0943399269248807E-139,1.4080509919430354E-139,-1.475384724830257E-139,-2.233062210247203E-139,5.418602344289922E-140,2.1881531213108332E-139,1.027094619169263E-139,1.8630402000153353E-139,1.1928273967821776E-139,-1.732631439864493E-139,1.2661963896163924E-139,1.2244365316318772E-139,2.48947191296067E-140,-1.679520505048248E-139,1.3242133891026487E-139,4.942345885608937E-140,-2.00280864443099E-139,-1.1783304161027284E-139,1.690301005063257E-139,-2.0613496539446264E-139,1.957526979182994E-139,2.6954413526171725E-140,-1.8587341111908717E-139,4.993556555164622E-140,8.931392828907903E-140,1.789492212619299E-139,-1.1107091580953978E-139,-1.384297943601052E-139,-1.745245352647005E-139,-1.1302686942865011E-139,-8.464106033648708E-140,-2.2964364938459004E-140,6.564918329141999E-140,4.53918642448119E-140,1.914879252037317E-139,3.2028564901849995E-140,1.0273677611715112E-139,2.0057190400280163E-139,6.154088747536327E-140,1.994610550760589E-139,-1.2841918875261311E-139,-4.859044832892027E-140,-1.2910073483907997E-139,-1.708582949884844E-139,5.932897786818911E-140,6.625970137445115E-140,-2.1418693329996885E-139,-2.1584233052039633E-139,2.1464547006521175E-139,1.2914418793711594E-139,1.779411493329805E-139,1.431070650810978E-139,-1.534842851193521E-139,-1.9963273971210475E-139,-9.428489038691549E-141,1.473118509972107E-139,-1.640937198343864E-139,1.2300119487573079E-139,1.2477736125663026E-140,3.695612056091485E-140,-1.5859596100657896E-139,-7.567278253536738E-140,-2.0633089640183863E-139,1.1929471648017398E-139,2.369758066831509E-141,1.1671950674079546E-139,6.5170683265987555E-140,-6.761146764672275E-140,1.0285293886830247E-139,9.729025799641787E-140,-5.253928984019898E-140,-1.5908374064176758E-139,-2.73450265956701E-140,9.301614627645517E-140,6.208384652628359E-140,1.0777891972662502E-139,1.184557370430757E-139,-1.5977753108348798E-139,1.2702830612876234E-139,-2.052907933864628E-139,-1.577921945180952E-139,1.7884346842338221E-140,-3.506956303521839E-140,-1.2965360160061258E-139,1.360157849312303E-139,8.000237060536456E-140,-2.052235161458436E-139,2.1987166632515098E-139,6.649019153662716E-140,5.570186970191459E-140,4.243424042421352E-140,-1.3096570076530119E-139,-1.0268065169546236E-139],[-3.634680540968457E-140,-1.6531435047227508E-139,6.675117339482647E-140,-8.63289815439364E-140,-1.9717002518860826E-139,-7.4272789881818985E-140,2.060766900117144E-139,8.391296558295602E-140,-9.899248337977688E-140,5.959084299456203E-140,-1.8455161690301476E-139,-1.975940182599918E-140,-4.894472389625657E-140,7.9552445494945005E-140,-5.969449574457593E-140,-1.8919979028579257E-139,5.239819165306331E-142,-1.21644825064342E-139,4.551330387291581E-140,9.791223554463498E-140,-1.4077354883781307E-139,-2.0106431989129775E-139,-1.8496196895250515E-139,-8.0393191669562045E-140,-2.542930016112049E-140,1.6382076249866992E-140,-5.668939102291681E-140,-1.779811889978447E-140,2.9636403040313473E-140,-1.2717275276593361E-139,1.4280753553704631E-139,-6.368346494971541E-140,1.146138893487293E-139,-8.856830323776283E-141,-1.422548479403171E-139,7.922588745473703E-140,-1.2574396820581E-139,1.867599776520084E-139,1.270880715729851E-140,4.249354211116566E-142,1.1689268780514286E-139,-1.3133009819406199E-139,1.783634102656824E-139,-2.727488722869301E-140,-1.7839098735849583E-139,2.405694482340414E-140,-1.8514146072662005E-140,4.623143207821605E-140,1.2359761074801191E-139,1.9066186393781354E-140,-1.0740272061072395E-139,-1.4973859619022576E-139,-1.023565337583677E-139,-9.062670011097128E-141,-1.917424981726396E-139,-7.523462335224532E-140,5.6712883390419155E-140,-1.3357590332222259E-139,-2.1507565537732356E-140,1.3161712463500088E-139,-1.3895719063293026E-139,-7.250965180774814E-140,-1.921852272644579E-139,9.485782983166484E-141,2.682746702365967E-140,8.143592325944309E-140,-1.6742089696715296E-139,-2.033921955438298E-139,-1.7512431540898182E-139,6.647531363363298E-140,-1.4353949811262681E-139,-1.310248886447978E-139,1.9636069641835824E-139,5.699365424443475E-140,-6.181394896122544E-140,-1.4216565155154505E-139,-1.902801477384033E-139,1.606426560266677E-140,-7.181092512037744E-140,1.889139687554294E-139,1.742737902549549E-139,3.3201036995517895E-140,-1.7353210573917434E-139,2.6280421045066845E-140,-2.0022301939331834E-139,-3.298965284469007E-140,-1.2690737946383476E-139,3.8790145298939974E-140,-1.2330276466697932E-139,2.3263028409773775E-140,3.0778612783849567E-140,7.504077246656207E-140,1.914087253486929E-139,7.038001555927797E-140,1.965195619931512E-139,2.143972629770553E-139,1.8478657092656945E-139,-1.3160864240967253E-139,7.554905402019226E-140,-5.075367185505444E-140,-1.4864432974660006E-139,1.408775407690562E-139,-1.6729172445144999E-139,5.027624785074106E-140,5.391960060176948E-140,3.467063985198825E-140,7.319577107861357E-140,5.910100923528114E-140,1.4608659992612374E-139,1.1890270816282842E-139,-4.1400056655371376E-140,-8.201847137963472E-141,5.399084584759505E-141,-1.3491756066193344E-139,-5.233015032788002E-140,-4.767409997700483E-140,-1.19230342098649E-139,6.9087022177020125E-140,8.321699873296995E-140,1.0326675954899049E-140,-1.23793513509545E-139,-5.732777063834609E-141,1.0657144164146322E-139,1.1042543589425037E-139,-1.3469844109596736E-139,9.960305337004263E-140,-2.0994475639820013E-139,-9.178320878468757E-140,-3.507259741528703E-140,1.5986611672596894E-139,2.150233415046569E-139,1.9404991329441822E-139,-1.7132645358590628E-139,9.233373891656253E-140,9.114078140255248E-141,8.75073925709392E-140,1.8798677826866784E-140,1.4036791138639437E-139,2.166467028397631E-139,-5.37126559953393E-140,-9.659691522506515E-140,-4.900432056262364E-140,-1.3732317851122922E-139,-1.6856739793847463E-139,-1.0356549300207707E-139,4.1358022726449775E-140,2.2412763937128004E-140,1.4767732813877687E-140,1.4095326191861725E-139,4.323317556593771E-140,-6.692479215910404E-140,1.0780331743838927E-139,-1.4848680264880548E-139,4.999221940708696E-140,-4.329103473679394E-140,-6.892210383826466E-140,-1.2027353322462207E-139,-5.860752634765111E-140,-9.674320121321622E-140,-6.73346384025067E-140,-1.0119582383610202E-139,-1.2095211466967904E-139,1.6441555140900791E-139,-3.8516436326440636E-140,-2.0015740996087707E-139,-2.29555022927232E-140,1.5261423408279936E-139,1.7406746931708224E-139,2.127489615276024E-139,5.294900543175725E-140,1.2966232557163502E-139,-1.2292422505260742E-139,9.691722508257434E-140,1.408362097630693E-139,-4.950972169424815E-140,-9.171955603387895E-140,4.025197533324173E-140,-7.489489917539483E-140,-1.281135758456527E-139,-1.1513818538208828E-139,-1.2036049466691361E-139,-2.594382822056494E-140,5.65283955481314E-140,-5.80842723809376E-140,-1.7480249411458575E-139,9.181397837489673E-140,5.936676265996358E-140,1.0776382029929011E-139,1.7333806337561714E-139,-1.3929353068762849E-139,2.052462651299305E-139,-7.26148441524987E-140,8.948248979707435E-140,-7.536080492033598E-140,-4.637560160397241E-140,-1.4304082139537357E-140,2.1179196276288148E-139,-1.321274854008493E-139,2.1511124031232363E-139,5.974521182493224E-140,2.7675402947367966E-140,1.2474538561403767E-139,2.676497432483846E-140,1.3155967795225111E-139,-1.2745489123019055E-139,-4.061968471145493E-140,-7.61798571725705E-140,1.4308790326532373E-139,-3.08552420596771E-140,-1.68811648722654E-139,-8.602788707964526E-140,-8.375247397922066E-140,-9.234906028498195E-140,-2.0089120864699814E-139,-7.990640398763844E-140,-2.0101295481022543E-139,1.890514410528601E-139,1.216583952835226E-139,5.14418473497073E-140,-5.442649603893123E-140,-1.6468821168597456E-139,-7.884779889988503E-140,2.037850405101349E-139,1.678363339557609E-139,-1.5028509797086523E-140,7.231289620734728E-140,1.568921529396302E-139,-1.6560444162650083E-139,1.479957460998534E-139,-1.507704330571918E-139,3.415068547968544E-140,2.1178424280611935E-139,8.521103671181547E-140,-7.74893121783713E-140,-3.086496275645578E-140,1.1352569511326845E-139,-1.8679773412076196E-139,-2.086458584708838E-139,1.0463804924797269E-139,1.475243686586848E-139,-1.6342548551730382E-139,2.0512102136170756E-139,4.753319940465583E-140,-1.8396945408589675E-139,1.910445973875909E-139,1.9854385021960488E-139,1.9549763658658658E-139,5.54151551478155E-140,9.687885453194379E-140,2.62926492812908E-141,1.918619100336333E-139,1.8759919009492264E-139,1.138714632875702E-139,-2.2163665125475802E-139,8.353092373847365E-140,-7.311155274257482E-141,-2.0457627393229344E-139,-1.840930589167513E-140,-1.6134562137798928E-139,1.8852023211782014E-139,-9.778968581385217E-140,-2.155951094132097E-139,-1.7648174716516964E-139,-1.8229622557400897E-139,-8.744991007121155E-140,-1.655333912364172E-139,1.625660443689643E-139,1.197195589193552E-139,-1.1569732124199736E-139,7.3689386062728655E-140,-1.1782633457241148E-139,4.996719500702708E-140,6.07661092566362E-140,-1.1389542638453885E-139,-7.922080653175672E-140,1.4039647750569218E-139,3.378874292156203E-140,-1.1957848710973007E-139,-1.2809675807006275E-139,9.223209791191314E-140,2.096205277758523E-139,-1.9818502769610702E-139,6.805816551034695E-141,1.5288382174035246E-140,-1.0401355577706888E-139,7.908813592853358E-140,-2.2150468582888937E-139,-1.9107025613870216E-139,3.7212472050887953E-140,-1.028619801934689E-139,6.8360526882065415E-140,2.0104830891418697E-140,9.807863345221134E-141,-1.5878573130232995E-139,1.6973904802028056E-139,1.4855231039424426E-139,-7.316137768671713E-140,1.354924669676152E-139,-1.6306210470094305E-139,-4.38921687661597E-140,-6.30120442626376E-140,-1.0121312872668056E-139,-1.6090056838254743E-139,2.1735681333720682E-139,-1.6661516273727046E-139,-2.211961479336833E-139,-9.493868497230132E-140,1.4553267233888374E-139,8.275071426247359E-140,1.6119150429175136E-139,-1.2441343429149557E-139,-1.752867951013368E-139,6.461627558723234E-140,1.794455712550637E-139,-2.070648403090758E-139,9.610272828827643E-140,-1.8683007517621418E-139,-1.1494423048242524E-139,-6.5049700725183935E-140,-1.1962726387356337E-139,6.575705994717127E-140,-8.887690117967185E-140,-4.749556541175049E-140,-2.387247434677358E-140,-1.5319869831627529E-140,8.352336798466968E-140,-9.591956429263468E-140,1.891383659656207E-139,-1.9502140431279674E-139,-1.5140225199250537E-140,1.4496191012649785E-139,1.3883466617520016E-139,2.9335166618734707E-140,2.082102997041638E-139,-2.0724746042479414E-139,-1.6216706506354562E-139,3.3427422271220276E-140,1.6427677999844688E-139,1.637471561885269E-139,1.2477320097082712E-139,3.738564983777165E-140,-1.4363523703792057E-139,1.0517301737742004E-139,-4.341042955183595E-140,2.0737902381579545E-139,-1.3387944881324378E-139,-2.17085924930731E-139,-3.377981887153013E-141,-1.0083478536763233E-139,1.3386835254790562E-139,3.452684414933139E-140,-1.1300128933744182E-139,1.6352644392836267E-139,3.860410124046004E-140,5.681038523453516E-141,1.5474544206362321E-139,-1.0465064388829587E-140,6.293674803744332E-140,6.596185596184051E-140,-1.8507927194004144E-139,-1.793744491662809E-139,-1.8074355177836756E-139,-1.4768163969619017E-139,1.1737139105678263E-139,-2.0249087486041423E-139,2.019262427198446E-139,1.3726431778683403E-139,1.8438601561854767E-139,-6.712131139914373E-140,-1.383608232964938E-139,-1.1584054757773034E-139,-3.982226429766774E-140,5.520684754387912E-140,-5.239060131134123E-140,1.6537529256268252E-139,-1.3999220255115132E-140,-1.735973893819632E-139,2.7111655921881066E-140,1.5092668061195208E-139,-1.9809005420064232E-139,1.7485583126391552E-140,1.1434931460854293E-139,2.0595403908309726E-139,-1.179479137279669E-139,1.9657406727988834E-139,1.907331960276771E-139,-1.4971229734123813E-140,-1.3747582013572725E-139,1.761027643725521E-139,3.5604191004742113E-140,1.9975281203317207E-139,-2.0965846373117138E-139,-6.62544835486271E-140,1.505904701943106E-139,7.609806734053355E-140,-1.039843220828724E-139,9.993391948457487E-140,-1.3963894248303452E-139,2.0193880447323024E-139,6.010772059122109E-140,-1.8071848739813192E-139,1.3364514276028879E-139,-7.3813846497751395E-140,-1.1008467929724085E-139,6.137341747333182E-140,1.835271319203836E-139,-7.372945287020448E-141,-7.000066136740603E-140,-1.6654452833412185E-139,1.82610013470789E-139,-7.287563564255463E-140,-1.392171981490822E-139,1.552945151772905E-139,1.858499949380513E-139,-2.1917305385002514E-139,-1.2635204014692333E-139,3.4291496586470935E-140,-1.5868306496417344E-139,-2.2318395837811572E-139,1.2686688910930452E-139,9.681560350390935E-141,-2.135805820601863E-139,-1.0877526014770997E-139,-1.181961721130318E-139,-2.2164899810628178E-139,-3.4355895616562063E-140,6.815838040777798E-140,8.04033035044625E-140,3.0943337694932684E-140,3.6089256849427283E-140,1.8949505328187175E-139,-1.9800188907580834E-139,1.1298243115579312E-139,-4.905363792963224E-140,-1.6868530810943266E-139,5.814082819260342E-140,-4.461164144275673E-140,1.740386905600815E-139,-6.44464726510413E-140,-1.699819380900649E-139,-8.854682624525735E-140,8.60947481626488E-140,-7.182658175811522E-140,4.873034161932749E-140,-1.1405591160599814E-139,-1.1874533700708318E-139,-1.3045620261897704E-139,-1.6179870118726247E-139,2.0590835390513934E-139,-7.262242917199204E-140,1.0554617915732493E-139,4.216482566515216E-140,1.3396055663724646E-139,1.5929327969558583E-139,-2.2591335558088884E-139,-8.15886885855948E-140,-1.8051053164569526E-139,-1.5547561031850348E-139,1.4646796935001865E-139,-2.092403816002022E-140,-5.122810208656146E-140,-1.5109412436453414E-140,7.768755845194467E-140,-1.5436876518283934E-139,-1.7963418401517402E-139,4.925551615148209E-140,-3.1438958285440563E-140,1.7799160368737106E-140,2.974707084145048E-140,1.1798849557026561E-139,1.998753135353169E-139,-1.6737182478289273E-139,9.84146783567994E-140,-9.918624405311968E-140,1.6087607809321339E-139,-4.609304382425393E-140,-1.3968471703030536E-139,2.0084478025217815E-139,-5.960568594132911E-140,-1.929491348255918E-139,-1.0162555284396195E-139,1.70539176852065E-139,2.0847254515372163E-139,-2.202503423912247E-139,3.154317668156207E-140,1.9497441160577254E-139,1.9378009095019476E-139,1.906936567778992E-139,-6.514354395332679E-140,-1.4410976186536893E-139],[-1.1562101998097824E-139,-1.6773183120855199E-139,-1.7288330965853316E-140,7.464104083602736E-140,1.1275496976622936E-139,1.835342406064351E-139,-1.5621314039372612E-139,-7.113865990536841E-140,-1.938579622189107E-139,2.610148837806144E-140,-2.1627384674140598E-139,-1.9503411701422378E-139,1.2002517349482864E-139,-1.073754269174405E-139,-1.0800044187724166E-139,-1.9386207672722597E-139,-6.896150496721408E-140,-2.094284118191587E-139,1.9031657267678153E-139,1.1534210445582516E-139,1.4640583877237505E-139,2.149490191873783E-139,-1.146700942374259E-139,6.268046196714089E-140,8.381649146314585E-140,-9.768077665988853E-140,2.0077314373038434E-139,-1.809891725278198E-139,-5.430662574857219E-140,7.980710366604446E-140,1.4595627366264124E-139,1.0908568223303556E-139,-2.0956025399875398E-141,1.260167086925198E-139,9.364858063375483E-140,-1.471967697236676E-139,8.373111651559431E-140,-5.942879104500195E-140,4.0502692241885795E-140,-4.39718860661871E-141,4.5212711499894755E-140,1.4432372497402949E-139,8.404588910192704E-140,1.872125876541619E-139,-2.067714414339504E-139,1.7818276316487554E-139,1.2384759651107345E-139,1.8048186347521114E-140,-3.8989283182473692E-140,9.6225440278667E-140,4.135567824237397E-140,1.3680069193738896E-139,-5.1743646141101455E-140,8.86664974492478E-140,1.5186157709622413E-139,-2.1004085206610287E-139,2.1938232456554605E-139,1.3106414847087657E-139,-9.979411331180416E-141,-1.7500088693002233E-140,1.0001607268067784E-139,-4.950136163650488E-141,1.5174134245066377E-139,-1.0361235093615773E-140,1.840612885354063E-139,1.8224886053636805E-139,-2.0626007705500014E-139,-2.359176718104704E-140,-4.775682475278065E-140,7.179706639131839E-140,-4.176386986127154E-140,-1.8073771280884584E-139,-2.1900084620244864E-139,2.1877207009588667E-139,-2.4011267693837557E-140,1.629710966261717E-139,1.3894813939990167E-139,1.079169327282276E-139,-1.0193828681615161E-139,-1.6773099998551732E-139,-1.0556844345032411E-139,-1.6142935265363598E-139,4.1306365701209424E-140,-2.4188605989481724E-140,1.4585845485045794E-139,1.7080330530600435E-140,1.5781032557412E-140,6.224218474506026E-140,5.833634102364376E-140,-3.757673180730458E-140,6.594714696524144E-140,-1.941170583341511E-139,-9.654415733361597E-140,-6.819871650683451E-140,7.890238971319445E-140,1.0822476995515347E-139,-8.290061917831428E-141,-2.1659289114462345E-139,-1.4141549698714864E-139,-1.1534506256875753E-140,-8.717862976054379E-141,1.3680983366746097E-140,1.2675255503487996E-139,-1.3801793550571992E-139,-1.5561692291226481E-140,1.9340263025301526E-139,3.3917298138651454E-140,-1.0435561938603384E-139,8.468395444124496E-140,2.678450464157349E-140,-2.1457765275145136E-139,1.7136007411896357E-139,1.8069679817683837E-139,-2.0061508501386004E-140,1.943562124722104E-139,4.447058316696267E-140,1.2857674850693259E-139,1.3350252527525756E-139,-1.5675716032438468E-139,-1.4814334241953986E-140,1.1409070969345678E-139,8.67416557160919E-140,-1.298835801475294E-139,1.4181026200826572E-139,8.489920968602861E-140,7.122618075284771E-140,1.281115799435659E-139,6.104907827438866E-140,8.619205438626886E-140,1.4759760788420274E-139,5.580760064553588E-140,-9.596884597891151E-140,-7.010038150897167E-140,1.3017094375981646E-139,-7.316044728243139E-141,-3.458538065771952E-140,1.6805903489025977E-139,1.2103617805896479E-139,1.455548865948781E-139,6.964597140430199E-140,-1.6024444065717238E-139,6.953332536654462E-140,-4.734516681259208E-140,1.4054896496828678E-139,8.644280092099489E-140,2.4842211461061957E-140,-9.736055631756119E-140,-1.3339974235319569E-139,1.0066096808198243E-139,-1.9746745622152668E-139,-1.95670140737687E-139,3.973987744144905E-140,-2.1427430365323364E-139,1.3223057028429674E-139,-1.0801627553139527E-139,1.9279073633485685E-139,-3.36130834193579E-140,-1.0256422277942773E-139,5.788021223380544E-140,1.1846614562126648E-140,7.40763671961961E-140,-3.01442300929843E-140,2.510505603234434E-140,-2.2381882810918745E-140,1.5855392482693164E-139,-1.1121032594539796E-139,2.2987132124130653E-140,7.364177693827507E-140,-1.5792318371598863E-139,5.123852339890309E-140,1.9582916064820655E-139,1.6209929640330179E-139,-8.878729465790115E-140,2.1885379310277182E-139,3.067998535578344E-140,-1.8848351729854475E-139,-1.818725235589624E-139,-2.047619326729769E-139,8.726511616444835E-140,-8.714484456312176E-140,-1.584280095347106E-139,-6.570767972646909E-140,-1.9224020467642746E-139,3.8546573691344185E-140,-1.7305455973154393E-139,1.2275400475538146E-139,-1.852263190551152E-139,-1.5671873367331875E-139,1.7582639877370866E-140,-2.10906293960465E-139,8.866507839613582E-141,1.10124850535789E-139,1.6452320747843892E-139,1.0588596954734482E-139,-4.0120009378042875E-140,-2.0911558614475773E-139,7.078544247939289E-140,-5.8579822900845295E-140,-4.534347990355896E-140,7.2719298093503645E-140,1.992586796945249E-139,-1.3830017111313712E-139,-1.7986315500475108E-139,1.4323888046931633E-139,-8.873575761258936E-140,-1.9518395826100636E-139,1.6958123308017457E-139,7.920996997400023E-140,6.829735779624619E-140,6.545176976712024E-140,-7.6596914950037885E-140,1.5916201575304132E-139,-2.185548836903732E-139,-1.8093722392935942E-140,-1.4826307458226775E-139,1.82969120040723E-139,-2.0062670531013984E-139,-4.5290092323502255E-140,-1.9594595740872717E-139,-2.8799821596421967E-141,-1.835782231608723E-139,1.2936419031627875E-139,1.5910505838630896E-140,3.8042433720405226E-141,7.596775413233515E-140,2.5690727945490012E-140,-1.4513959859824079E-139,-4.63147543473549E-140,-7.74768969265139E-140,-1.2613910322649107E-139,1.0128832965446064E-139,-1.8270853715867863E-139,-8.834212808293528E-140,-8.670367960523962E-140,5.0913605870676195E-140,1.7064671740324032E-139,1.390982830016725E-139,-2.5503048560924135E-140,-6.661115245502267E-140,-1.5080912723165524E-139,2.102895860430467E-139,2.0087731323769056E-139,1.8422794675588507E-140,1.0977739761922692E-139,-7.7267265357401155E-140,-4.303915403261147E-140,2.046374903516377E-139,-1.6647119756215617E-139,3.723404788635463E-140,-1.082307591486652E-139,1.8777219679710367E-139,5.734391070434456E-140,1.1011555030135366E-139,7.3835526526182755E-140,-1.2633372463531743E-139,8.291864244421851E-140,-1.325719317179194E-139,-1.0534919024013007E-139,1.8531257516975685E-139,-2.311344540528924E-140,2.2187495348224274E-139,1.5590981166668159E-139,1.0544570819138018E-139,-1.4039000640703326E-139,3.957400402265372E-141,7.394729473110408E-140,-8.240414498144778E-140,-2.021092683258952E-139,-1.10373954724098E-139,-1.8672547534934593E-140,2.1919429665832843E-139,1.8961852407299003E-139,4.0462162320091463E-140,8.383955581183065E-140,-1.1886403484215E-139,1.7736502897119718E-139,1.2451989380008036E-139,-1.5282754104353143E-139,-2.6906434268370413E-140,3.365310670121034E-140,-1.7024807843142353E-140,-9.70764959663114E-140,2.211138771561407E-139,-4.350755733449018E-140,1.3516796100680348E-139,-1.313889084425061E-140,-2.2873325853307327E-140,-1.2305727561164024E-139,1.8312114946493183E-139,4.263100334019988E-140,-1.9324847578265018E-139,9.808571141421927E-140,-1.8757312796556953E-140,-1.6663623998069494E-139,1.4058200086693551E-139,3.6631346070246286E-140,5.775000503790425E-140,5.1063964471701385E-140,-1.3719652547489683E-139,2.101536386336341E-139,2.0264009994300307E-139,-3.549787672381049E-140,9.225836678070335E-140,1.4430569446254818E-139,-1.787487496400875E-139,-2.5005532611283803E-140,-2.9023031435602707E-140,6.3612747226834225E-140,-1.3889626656014885E-139,1.292899760178688E-139,-2.0639452693485445E-139,8.77366786665692E-140,-5.977338349059513E-140,-3.7201970191853907E-140,-5.166962440481396E-140,1.1035235976751062E-139,1.7763406979947804E-139,1.5834000174602102E-139,-1.616597163387657E-139,1.3407329384694197E-139,-1.1190583489416006E-139,2.1618171446472525E-139,-2.173884936021776E-139,-1.8147632041512574E-139,1.341518554604981E-139,1.592949423953161E-139,1.671946080894333E-139,-5.947557798809427E-140,4.551686943203587E-141,-2.1146140513456427E-139,1.9161064852410176E-140,6.907911144045923E-140,-1.927710236798534E-139,1.283645217047909E-139,6.110653129488744E-140,-1.2144527515255766E-139,7.352965775754985E-140,5.213552827608954E-140,5.329022889038293E-140,-7.24818842313071E-140,2.1298692046806E-139,-1.7397551276803886E-139,-8.73777999014815E-140,-4.726860604634618E-140,-1.5329671554163613E-140,9.185758656817419E-140,-7.406334278311015E-141,-1.5981284865820007E-139,7.7553749488938975E-140,2.232977607104268E-139,-1.3735848530942782E-139,2.0413243213295906E-139,1.3513476339385447E-139,1.942798175539734E-139,-2.0932439789511315E-142,-1.7991383693556976E-139,1.3292030167803664E-139,1.154275065884813E-139,1.0292488649493403E-139,-1.561279117312077E-139,2.0494331021951154E-139,8.663673761324952E-140,-1.2703658614411953E-139,-1.9782535253505035E-139,-7.9023570369311625E-140,2.1524829184308302E-139,-1.6457572317755661E-139,1.1923461047201175E-139,1.530375265487952E-139,7.629462385277957E-140,8.155306648875591E-140,-4.955224584522774E-140,-1.315259617138935E-139,-1.8440664686815725E-139,8.531028042741928E-140,3.725224707940974E-140,2.046557340130633E-140,-1.849030440241569E-139,3.4510794533770477E-140,-9.725176268358425E-140,2.0683235656556055E-139,3.393091614508392E-140,1.473740838144444E-139,1.4350379295016404E-139,1.727365911390124E-139,-2.2185898638967674E-139,-4.841792843566641E-140,8.714009514190345E-140,-8.618886293961932E-140,7.347264784497849E-140,3.6094733238679224E-140,1.769672877621616E-139,1.8192686977411766E-139,-2.463003121389795E-140,-8.863680945453132E-140,-4.957343864299753E-140,-4.08885685366331E-140,-1.1919103074886185E-140,5.074611919909881E-140,-5.831287791051386E-140,3.9482444171923283E-140,1.0981361706453244E-139,3.3679819042973246E-140,-1.238920078764638E-139,1.7519684900492066E-139,2.036395965059817E-139,7.458251222515104E-140,6.2255184458967755E-140,1.5593791078873357E-139,1.101890276372491E-139,-1.4890510088238243E-139,1.0133441581799676E-139,-2.351036198192344E-140,1.3607216112658008E-142,1.0618013626935706E-141,-1.5382173249691982E-139,8.545953554245732E-140,3.726405623335864E-140,-2.271013975462083E-140,-1.610839833009156E-139,3.8842066701878492E-140,-1.6628593652759661E-139,6.094776017253718E-140,1.9793880812310598E-139,2.8076423390038914E-140,1.0690941397838367E-139,5.292417361774031E-140,9.693532103521533E-140,9.008611402074216E-140,-2.0466904536795047E-139,-3.618714442678544E-140,-1.2183481489675119E-139,-2.05718358093901E-139,-6.535381756232966E-140,-1.5870994840057521E-139,1.2204683790597826E-139,2.102881158486973E-139,1.3794682894807672E-139,5.261202887528905E-140,-2.208971642557187E-139,1.2674427719721953E-139,-3.9741411826651817E-140,1.5376798307805516E-139,1.801551139681119E-139,-1.9920833101656716E-139,3.6503310815691454E-140,-1.5288854309932845E-139,7.332376624647071E-140,5.375229157852619E-141,1.17455025989153E-140,4.47787803252081E-140,-7.868337267355365E-140,7.140546518245825E-142,6.740477887509999E-140,-2.1914382092581867E-139,-4.429076394863862E-140,1.286568627001137E-139,-1.7597370334093795E-139,-1.813697293032646E-139,5.037526934840743E-140,9.595866587055232E-140,1.17830621422516E-139,1.0423141885637956E-139,-5.853781079408914E-140,-1.481625313730775E-140,1.1037907619288467E-139,-9.743951575765264E-140,-9.177054493285088E-140,-1.0373183444103657E-139,1.331760178993495E-139,-1.4037727659829218E-139,-1.0393914763472282E-139,-6.645477004296815E-140,1.537040860366384E-139,1.432357932859368E-139,1.8641853378561323E-139,5.544475672073121E-140,2.183567718695831E-139,8.61767131544979E-140,5.292603283724821E-140,-2.0325607186988885E-140,-3.1198191838678854E-140,-1.2965139208519786E-139,1.722975814076618E-139,2.4398412159002483E-140,-6.359310061947585E-141,1.8654436586397003E-139,-4.198847781219522E-140,1.05983876362226E-139,9.99718992065214E-140],[9.827652842269522E-140,5.639887037218355E-140,2.0998582127027794E-139,1.0101365320002035E-139,-2.023114437910768E-139,-2.068161566804704E-139,1.898639819584006E-139,-1.8886729088595924E-139,7.30854172230257E-140,3.484185256101317E-140,-8.573000649816979E-140,-5.545264034072131E-140,9.969231500739345E-140,-7.350322701670882E-140,2.123751511423168E-139,-6.796648002858331E-140,-1.4138378993214787E-139,1.6771198854550347E-140,-1.8642284931284276E-139,8.123116463502261E-140,1.6835472460523135E-139,-7.356227185476356E-140,-1.124753366788337E-139,-1.7340120999554778E-139,-1.4658042996987934E-139,-7.121159781158455E-140,1.8301558836937382E-139,-2.6863274301141967E-140,-3.469184352257908E-140,1.024120567501471E-141,-1.2497742594855851E-139,1.5562115596174446E-139,1.5460264145711063E-139,2.0104640344427026E-139,-2.3683679381242978E-141,-1.2048196568251538E-140,-1.1171474947375188E-139,2.054516704688244E-139,1.2385494308763779E-139,3.2031370309745695E-140,-6.844176618971197E-140,9.060429756826207E-140,-1.689643891677643E-139,-1.992259195258481E-140,-7.026484384790967E-140,2.75896321221495E-140,1.399657240087184E-139,5.248039081508307E-140,-9.658503208493359E-140,5.935520942185547E-140,-7.464801147839517E-140,8.139477787071308E-140,6.317145818932509E-140,-4.928833700275254E-140,-1.2937905222506695E-139,-1.060223117058362E-139,-1.1595682970600007E-139,6.249651151276349E-140,-8.345658484364254E-141,6.797993153216381E-140,1.3978657587434323E-139,5.515776388047044E-140,4.0855735479371407E-140,1.228917729459161E-139,7.210929460663774E-140,-2.2826902777817867E-139,2.2726966016262975E-140,1.8816471803693635E-139,2.534680392375383E-140,-1.5023516586572517E-139,1.597090651934996E-139,-1.31619635486225E-139,1.880168991068798E-139,1.7431658186491964E-139,1.1399303621980754E-139,3.936067817669149E-140,1.4889438787625152E-139,3.0322505940455313E-140,1.2442626082395964E-139,-1.155904028474607E-139,-1.8849709207270154E-139,-1.1673866107875416E-139,4.531009670281962E-140,1.5151536919820863E-139,4.745609495772044E-140,-7.66802226883318E-140,-1.0947422100941614E-139,2.7891814763637416E-140,-1.9764774307349267E-139,-5.160052736601716E-140,-1.7728065808689437E-139,1.880478521821047E-139,1.0563245443336231E-139,9.74836676066636E-140,2.081849061828031E-140,-1.4595320087043614E-139,1.5806831736899451E-140,-3.783711376995203E-140,1.0055790174324207E-139,-1.0274851815260962E-140,1.650349791899767E-139,6.245502299333086E-140,-2.2758084238014407E-139,-4.302331782191892E-140,-7.609348807534124E-140,7.299839629245582E-140,1.4155795081493598E-139,-1.941488079472793E-139,-2.2951798649343107E-139,-1.441173321505932E-139,1.6694032873571013E-139,-2.3219928830601748E-139,-2.0619500990636332E-139,-1.3049865984575963E-139,1.5284014694984764E-139,2.0025556922698828E-140,-2.2738252150856094E-139,1.0734450568286785E-139,8.714206953656491E-140,3.5473886358470078E-140,-1.5312647110619014E-140,1.2681203319378732E-139,2.0622650472285386E-139,-1.2636719250537298E-139,-4.007963679429214E-140,-2.137101624938378E-139,-9.523416219215837E-140,-1.6788124372834636E-139,-1.4864159224385292E-139,-5.175023241060371E-140,-5.629278511101677E-140,1.6178040170086606E-139,-1.2206021021428997E-139,7.126448808370964E-141,-8.46907417189529E-140,1.3404098656688428E-139,-1.777615221051217E-139,9.39702905817803E-140,-5.179019967609368E-140,-1.6605087479592034E-139,1.2479593519321612E-139,-1.9181299752763214E-139,-2.695504544080531E-140,1.3443517486943693E-139,1.5476830358345424E-139,-1.6422989052465587E-139,1.5546584247339333E-139,-1.222207969266179E-139,1.2537050636245744E-139,-1.0708032860890167E-139,8.604435883536722E-140,-6.052009936879715E-140,-2.034981320045335E-139,1.4762882913833258E-139,-3.798764268033251E-141,-4.525305274115664E-140,1.508117346534516E-139,-1.9984339389212395E-139,-1.8804522021917664E-139,-1.458318295393663E-139,1.5493376756641098E-139,2.0717906677278638E-139,4.165967600182443E-141,-1.5683116830000232E-140,-9.086371987116425E-140,-2.0165881880351506E-139,-3.653056427814506E-140,1.5149864419758178E-139,2.792348919733182E-140,1.1095492049667043E-139,5.067243333146996E-141,1.668954677390817E-139,-1.959159742026317E-140,-9.406181161963944E-141,1.406942360865362E-139,1.2138072792246895E-139,-1.8943574015468225E-139,1.3152716100587132E-139,-2.0451499178482715E-139,1.68534801631723E-139,1.9887728959728398E-139,9.69019242831566E-141,-3.943327121653302E-141,1.049642991292686E-139,3.2894347882921193E-140,9.08495613774152E-140,1.6778658543844847E-139,-3.961584499190371E-140,5.244096918130973E-140,-1.5132446446815296E-139,-2.0361059357503426E-139,1.2147720637365205E-140,4.912914135286639E-140,1.3188547603144518E-140,-1.2768678497856108E-139,-8.116522966718954E-140,-7.887691883474455E-141,-7.569837724926007E-140,2.529440813287426E-140,1.2557076280823868E-139,-1.4167732389766771E-139,2.097124611004574E-139,-9.388794567714875E-140,-1.0032731103975112E-139,-1.1097424276389304E-139,-6.116831187257328E-140,-1.4736206649975014E-139,1.4106471556091867E-140,-1.4640239497456229E-139,2.0481273785304787E-139,-4.546609431069235E-140,4.896799981131363E-140,1.6593503932021093E-139,2.0656211160437378E-139,-1.6945407732895307E-139,8.180528071247715E-140,-2.3158273991770976E-139,-1.9500760903826063E-139,-1.3130244685778206E-139,1.695117312345163E-139,6.90907408475433E-140,-1.1468291399725204E-139,-1.0424757272347704E-139,-4.455794612717169E-140,8.207464856896571E-140,-7.753437722513339E-140,6.49865574399669E-140,-1.9667039407630017E-139,-1.4268685115368052E-139,1.761023685884671E-139,-9.141776855778012E-140,1.7541029216480226E-139,-9.000011697580298E-140,-7.055276706921508E-140,4.991242619587987E-140,1.6821167972505095E-139,-1.0481414427708418E-139,2.3187428823474844E-140,9.049321232677929E-140,1.912377828559151E-140,-6.95832569410235E-140,-1.9682053413873262E-140,-7.856242483759609E-140,-2.3155987897822465E-139,-1.9050425621985618E-139,1.846505392210004E-139,7.911674515315114E-140,-1.900241383319436E-140,-1.5533190152024062E-140,1.979028037974814E-139,-1.9659702164807963E-139,9.015344247285308E-140,2.1173431574567407E-139,-5.050549158574234E-140,1.7961083808407268E-139,-2.533354176355502E-140,5.218464046558259E-140,8.59424398065805E-140,-1.1644966690074873E-140,-5.84325729184355E-140,1.409722720069087E-139,-7.076510216752644E-140,1.4801194634804974E-139,-5.881590337561721E-141,1.8258941319035595E-139,1.461262251755049E-139,-1.8846457772374182E-139,-8.690368382297443E-140,-1.2832366358357193E-139,-1.6893781702058664E-139,8.43404129757266E-140,-2.811632715940698E-140,-1.2419766484890114E-140,-7.14201920753725E-140,1.8248081412018157E-139,-5.467452819378392E-140,-2.2104648944189867E-139,1.903962405517154E-139,-6.996788682880087E-140,5.381993556113948E-141,-2.281332306581222E-139,3.5292513094724533E-141,1.9999586600928474E-139,1.4245104384089947E-140,1.5752284940443317E-139,1.353128822591399E-139,2.0128965350709418E-139,4.0954623428025776E-141,-6.080201178250972E-140,1.0901379146780987E-139,-2.9401631322823285E-140,-3.7392950084708174E-141,-2.3217728225451606E-139,2.0119910412877168E-140,-3.9399280321740875E-140,4.998487635210371E-140,2.3814160178504954E-140,-1.9633216840366858E-139,9.278323698022181E-140,1.6115773358699541E-139,-3.314626399213274E-140,1.2282593911064087E-139,1.8913260213226865E-140,5.1415500461228165E-140,-3.432034958761816E-141,1.9581784540291285E-139,-4.490235642178167E-140,9.699138432677008E-140,-7.12368596578917E-140,-7.72911516382762E-140,1.9731832029888352E-140,-2.186986476853005E-139,1.736448156442146E-139,-9.269415370393674E-140,1.1718735826042286E-139,8.791273059422165E-140,1.9050283888209364E-139,1.8990244905664706E-139,1.2848424407434028E-140,-2.5381642745445255E-140,-3.374401497008485E-140,1.017144415573264E-139,7.338758198280174E-140,-1.8834339135009062E-139,1.0949683671254837E-139,1.0467518920439996E-139,8.703624690783457E-141,-1.3746483983545142E-139,1.1465381583079129E-139,2.0086447609432426E-139,-1.918108918880758E-140,-1.3556410553693206E-139,-1.7342697065312273E-139,6.2041153446685335E-140,-7.962870384844801E-140,1.872292383461578E-139,-7.925804739260387E-140,2.146734764896506E-139,-1.225681428877466E-139,4.012232594448666E-141,-1.3740428015167325E-139,3.6963867689219708E-140,5.049342458246484E-140,1.997562524977855E-139,1.8374863199654906E-139,4.858102111109386E-140,-6.263948145991752E-141,-1.7367308187107058E-139,1.9065619753774812E-139,6.486367073835957E-140,1.7896931867715578E-139,-1.1579396844962621E-139,7.986011725609642E-140,-1.5693757782959188E-139,-1.3250540110418925E-139,-1.689826422946455E-139,1.3886933191904213E-139,1.5596560371558774E-140,-9.265651699861651E-140,-1.727355526677871E-139,-8.380365545198119E-140,-1.8844505338477662E-139,-3.900917569915771E-140,2.140534373357747E-139,2.1301873860992905E-139,-1.748795588315651E-139,2.301153088557321E-140,-1.936716587636186E-140,-1.1906558750431852E-139,-4.892418901491583E-140,4.8374066965901354E-141,-9.31201290474574E-140,-7.058739928150686E-140,-1.3190723620906972E-139,-1.7798692342127745E-139,-3.340027887327011E-140,-2.141508819407807E-139,-4.158880241200011E-140,2.6464291338380644E-140,2.1311520918468057E-139,-3.9069467828795515E-140,-1.4952814467858799E-139,-1.120231977636656E-139,-1.829641003412455E-140,-2.0724833147594274E-139,1.3177420191796924E-139,-2.0111719429854543E-139,1.687441008214391E-139,-1.7579443949015632E-139,-2.3227347456348863E-139,-7.18972408497614E-140,-1.9543170708807524E-139,-2.1537353809863523E-139,1.2434954397508605E-139,5.862736711570909E-140,9.443897980257548E-140,-1.1807156837906376E-140,1.2811185486067432E-139,6.281642727298043E-140,-7.656631197407367E-140,2.0256376837793706E-139,8.93648322698041E-140,-1.722489690537353E-139,-1.088191268573115E-139,-7.590742976284705E-140,-2.1556951286603073E-139,8.308512869041194E-140,-9.9785945054231E-140,-2.126643569576211E-139,-2.31885002202823E-139,1.7338574555873444E-139,1.2777791010273728E-139,1.9173807610050637E-139,-3.866622649204693E-140,-2.1402046446036313E-139,-2.2670872984564787E-139,1.7401173745279246E-139,1.276964486315321E-139,3.5566838424842526E-140,-9.68704323916513E-140,1.2143465227962034E-139,-1.7921008456145338E-139,-1.0919627543766022E-139,-1.6963995614263206E-141,-2.1786579372468234E-139,-1.031605272327188E-139,-2.151680628889646E-139,3.068468726320169E-140,9.683224882258855E-140,1.1145933061357097E-139,-2.778486586065905E-140,1.7791893976880776E-139,1.8216113646309267E-139,1.8968556081859177E-139,7.193286258207047E-140,7.916342710992493E-140,-1.0587003837405517E-139,-4.1743608836956305E-140,1.2387202621282638E-139,1.7555491834003628E-139,-1.0703845571232346E-139,-1.2412472065726412E-139,-7.934906624156975E-140,-2.823373472793807E-140,-4.473767754553316E-140,-1.6374795703379015E-139,4.867395056682008E-140,2.1048331748790217E-139,9.226997246585024E-140,1.318476615012831E-139,4.64904010414637E-140,5.397985801106031E-140,-1.9001109396952792E-139,-7.917146917917519E-142,1.8850831572508926E-139,-4.539966490445659E-140,-6.096590080030304E-140,-2.9857202973813E-140,-2.196252755607314E-139,-2.0143935880974144E-139,-1.6073872442208013E-139,-1.931514508191348E-139,1.975626879143337E-139,1.8329951915780825E-139,-4.715946271105724E-140,-3.9394753001259743E-140,-1.0191877800372851E-139,1.2652696645238459E-139,-2.2987979130777985E-139,2.1321451328842862E-139,-2.3069250118690647E-139,7.366500552433231E-141,-1.255767005733198E-139,1.1829217006683674E-139,-1.929060711926948E-139,8.0365656589232935E-140,1.9159542114871664E-139,5.196336120942032E-140,-8.547294711815738E-140,2.031387285707749E-139,1.5137237731776456E-140,5.053385520979586E-140,-1.6261039411924853E-139,1.6162712453456915E-139,-2.9086351911793246E-140,-2.0416842641354774E-139,2.0686932121679132E-139,-4.40930520401547E-140,5.475789367416387E-140,1.630105668876534E-140],[-2.213460943879277E-139,2.1086061012142076E-139,5.464197623051201E-140,-1.537406459674848E-139,7.414787376784868E-140,7.588558797948108E-140,-1.805616481813791E-139,-6.498523891435537E-140,-2.0069698981304534E-139,1.7178229358113346E-139,9.34410132873134E-140,-1.3886201979760452E-139,-1.3857141118201244E-141,1.325403943651626E-139,-9.303085584060117E-140,-1.7191237547020095E-139,1.1232860977869546E-139,1.4531585061874E-139,4.4956142875992154E-141,1.5731597120849421E-139,-1.835838913360172E-139,5.04725181879472E-140,-1.288710551454382E-139,-1.3720052912052818E-139,7.465902385266293E-140,1.19996059668356E-139,1.673117330465064E-139,1.896822678057819E-139,-1.8440366695376478E-139,-4.408611144290767E-140,-2.1385683338923416E-139,1.0102848686121579E-139,-4.424608201470776E-140,1.4389240507324778E-139,4.705199972796864E-140,1.9086298680604202E-139,7.225329029255806E-140,-1.1865810401751068E-139,6.898453774364843E-140,1.202706543692207E-139,-1.3047882316134472E-139,9.474868667805267E-141,2.5542253818183398E-140,5.534038014524728E-140,1.371988432489538E-139,-1.496371386030901E-139,1.0273907809493884E-139,2.219796010977352E-139,5.258333864284919E-140,-2.664225821243719E-140,-1.7628738376321963E-139,-2.1456126462513518E-139,-5.538248172514125E-140,-7.825265983656737E-140,1.8218246287124552E-139,1.3041200945565852E-139,-8.122458028446103E-140,1.1867617707400042E-140,7.58206532007853E-140,-4.357505406627398E-141,2.1177964784736592E-139,2.150130228806356E-139,1.4855374990553075E-139,1.1483165792213298E-139,1.1807758441201076E-139,-2.179850124178331E-139,-7.041699730467196E-140,-3.493823329475542E-140,1.7611016678242983E-139,-4.002526214139632E-140,4.372089099017356E-140,1.5288594381717624E-139,9.295872489786047E-140,-2.1379207910271066E-139,4.687080669947352E-140,-1.1327152761826828E-140,-2.1602938592974502E-139,9.685961873713295E-140,-1.5465612567850184E-140,-1.885775869518516E-139,1.24512388579351E-139,-1.4087000285501072E-139,-9.491248579879152E-141,1.1565517601013596E-139,2.117181025121045E-139,-1.6513516449659227E-139,1.4475675283774082E-140,-1.2371832097329963E-139,-1.2004941579505455E-139,-1.719033004600081E-139,-1.8428518001556284E-139,2.0613187837668104E-139,4.5302856765822645E-140,4.1642057215407703E-140,-1.145801675443124E-139,1.0915789168224363E-139,-1.9187837524086716E-139,-6.046807739518949E-140,-2.0292921303514084E-139,-1.1733483337859926E-139,-2.206711991549714E-139,1.4752590343950864E-139,-4.987074116845438E-140,-1.9538239555893586E-139,2.183118603030144E-139,-1.4870325674150016E-139,-1.2156783347888284E-139,-3.87120159391437E-140,3.810693731300836E-140,-8.796499896690853E-140,3.5782387026778183E-140,-8.767723577005404E-140,1.679937197895964E-139,1.794135296206316E-139,8.906493628543682E-140,2.1999648592524837E-139,1.3804344113474067E-139,-1.6297806619516201E-139,1.6477011724453326E-139,-1.6031589122802131E-139,-2.071333153325078E-139,1.8245881078547966E-139,-1.1983707464400635E-139,1.1304083864062717E-139,1.5844538174612434E-139,-2.5839410001490117E-140,-2.004501586109871E-139,-2.3689122270047885E-140,1.9911784377576186E-139,-3.4826149497665556E-141,1.6267885697989977E-139,1.0040740128243873E-139,1.923365046400114E-139,3.484933112660021E-140,7.603081448286181E-140,2.0183866545580707E-139,-3.5268430401365543E-140,-1.771605681719617E-139,-9.90358642845178E-140,-1.8946206080261255E-139,-1.457086805112205E-139,1.902962661270161E-139,7.334485750134241E-140,1.126174268052548E-140,4.8223340464294545E-140,2.0587819126163094E-139,7.212306401004555E-140,-1.573178027340295E-139,1.0752678461662268E-139,1.8794834742608034E-140,2.1497328489543694E-139,-2.0302520941302224E-139,1.8116187984299796E-139,2.4928915392493184E-140,9.882820882003478E-140,1.4152492111596481E-139,-8.3630140289392545E-140,-3.544615226794601E-140,-1.8118208458123597E-139,-4.243867058833101E-142,1.954585412259335E-139,-1.8535128794892065E-139,1.6579152700783691E-139,-8.088393738820906E-140,-1.3064926561125105E-139,3.840400357193916E-140,1.8389552932869118E-139,1.7295324137742052E-139,-4.198967404465579E-140,-2.6869550637612184E-140,-1.8500623784153455E-140,5.4932278817372425E-140,3.6039914616312334E-140,1.6614230308787095E-140,-2.081568553069491E-139,-2.0238142255902563E-139,-1.742625940001567E-139,-7.002024476265482E-140,1.2839985540676184E-139,1.7695121803925715E-139,8.881872517314104E-141,6.037945671102282E-140,1.4714615439637071E-139,2.572778589340084E-140,1.2649263240745108E-139,2.0079469722449874E-139,6.410398191187373E-141,2.071019686167406E-139,1.7006848470563513E-139,8.91415726066184E-140,7.205556972524199E-140,-1.3245267915738894E-139,-9.484616363170886E-140,1.8093501862854942E-139,-1.7755289908871062E-139,-6.456436497383207E-141,1.2580253528314572E-139,6.133739413210665E-140,-1.2367930010301982E-140,-1.4966052398282213E-139,2.0473537299193E-139,1.3678005389017973E-139,7.091694948238372E-140,1.5575030510100065E-139,4.798411183599871E-140,9.782297993395027E-140,1.4624195348235282E-139,1.38568322523801E-140,-1.7953559649092526E-139,6.843332677715995E-140,-2.149174437742171E-139,-4.365279606484189E-140,-1.541802383996302E-139,1.7536675939694126E-139,1.3714948204354096E-139,-2.2581765245903787E-140,-9.15666963067369E-140,-1.7373749921955397E-139,2.085498729591656E-139,-1.9757645941676013E-140,2.0313149069666173E-139,1.836941722905316E-139,-1.8783084572983624E-139,-2.3708380993038914E-140,-2.1840595625975656E-139,-1.120900616281006E-139,1.7167688634698236E-139,-3.5445156957067364E-140,-1.2461654667265478E-139,2.360920497233286E-140,-4.635748312375137E-142,-1.7089614401008778E-139,-1.8481128670984092E-140,-1.2046720641672386E-140,-7.008141664064313E-140,-1.5758674462759258E-139,-8.195125613402478E-140,2.1226573031024123E-139,-1.6607963564667213E-139,-4.787890724985339E-140,-5.4411968068424695E-140,-2.0258153924587606E-139,1.0692202232911574E-139,-1.796915560151184E-141,-1.2128954457563895E-139,-2.036380153907214E-139,-1.5050575163015094E-139,-1.590320660931893E-139,1.76463964741525E-139,-1.3781136011964357E-139,-1.1946733634863176E-140,-9.921039729797162E-140,7.103491035044427E-140,5.97059782539774E-140,8.134223049835105E-140,2.1946749540257727E-139,-1.941046211009228E-139,2.7595493052746985E-140,1.8735137613615756E-140,-5.350368405072419E-140,1.4332387783841786E-139,1.6699736105251327E-140,-6.7092206319045345E-140,-4.0461350718662077E-140,8.2300606610654E-141,-2.089678917499196E-139,1.1588177156208097E-139,1.0977514773951442E-140,1.3535861742373341E-139,5.857367862027365E-140,8.83267885026262E-140,1.6111664902507112E-139,1.550745095199367E-139,-2.9498034681350543E-140,9.636557213767172E-140,3.0563660575256246E-141,-8.103396928920045E-141,-1.8994088664552813E-139,2.348014580800983E-140,6.864926897468247E-140,-2.1262512333939067E-139,-8.584296953702455E-140,-2.0078725928571284E-139,-2.011960393484816E-139,-1.9309662685566113E-139,-1.8617322255948146E-139,7.23251068099726E-140,2.6006693644766885E-140,-1.644297847664808E-139,1.1681676362979842E-140,1.6240788939167252E-139,-4.208473086111023E-140,1.0327201911196043E-139,3.1084060905244095E-140,1.1151449611951333E-139,-2.119933302904774E-139,1.9933353365655687E-140,1.390719909064369E-139,-3.032082443437887E-140,-1.796152064276681E-139,7.066642505853261E-141,2.1662952897099993E-139,-1.718669921133622E-139,-1.903891293732823E-139,-7.1565495880258095E-140,-8.070355913712945E-140,-2.2325798740910545E-139,3.6702724263836446E-140,2.0327377559430153E-139,-1.4287423895265915E-140,1.135269758227928E-139,-1.7500659993213543E-139,1.7326557867639993E-139,-2.2366659515537587E-139,1.08142455043195E-139,-2.280627408376721E-140,-1.987201474110234E-139,1.3110933171965595E-139,1.168274599896076E-139,1.0232192147290239E-140,5.480646202394437E-140,1.2622968273052778E-139,-1.0344913668583538E-139,2.341268950624857E-140,-1.700846095650622E-139,1.8642845869851922E-139,1.8065007673094336E-139,3.6447897445780877E-140,9.355734527746952E-141,6.845193066274099E-140,-1.540407734237921E-139,1.8920378135036212E-139,-6.252673826271601E-141,1.196336951052656E-139,3.4510455058252436E-140,1.2682869292548113E-139,-1.6096715269501425E-139,-1.8997785256077496E-139,-1.5674691856893914E-139,9.790413847691953E-140,2.1391247640813428E-139,-9.050354310198441E-140,4.589364498159026E-140,1.3206860382318748E-139,1.8486777004868065E-139,-2.2156351061887827E-140,4.947071219600946E-140,1.170923424861702E-139,1.0324015586305675E-139,-1.5177927717796657E-140,6.987428689263358E-140,-1.9175751630538557E-139,-1.1068272605771955E-139,5.896643969846878E-140,8.194163021638658E-140,9.805542499971825E-140,-5.835116803094522E-140,-4.693574999615893E-140,1.1642222338332027E-139,4.288925077966504E-140,1.3185555235276197E-139,-8.044687164090144E-140,1.1170282076781561E-139,8.441454663428057E-140,1.7092397673810047E-139,7.509048816777793E-140,2.043496590677476E-139,-1.826354270165715E-139,-5.83585792751412E-140,-7.5381088069192435E-140,8.50325865686809E-141,1.6669670251747725E-139,2.022893613144761E-139,-1.1529573708286525E-139,1.3816955340096154E-139,4.709363359066318E-140,-1.7762994577974436E-139,1.5202671526551392E-140,5.98401986436987E-140,-8.957128301963283E-140,-6.562122965628988E-140,3.248978149782267E-141,-2.333136776154749E-140,1.6613334565827434E-139,-8.544005506620345E-140,1.8143032429772886E-139,1.7701865681601552E-140,1.4087662919856637E-139,7.411632903971187E-140,-1.0528590277505608E-139,-1.3393942157206152E-139,-4.453076847307138E-140,-1.8707711359527256E-139,-1.5575336027400222E-139,-1.691456676799076E-139,-7.870604707208568E-140,6.145890985120749E-140,-2.095234652969675E-139,1.1391408121732493E-139,-2.5312062083010406E-141,1.2909258742009916E-139,-6.064118527602352E-140,1.7121771074189414E-139,1.2477045100505321E-139,-2.157889760721638E-139,-8.196285008734227E-140,-2.2159298021341145E-139,-3.16812874662161E-140,6.090961429723321E-140,-2.291956333574722E-140,2.105773573638806E-139,-2.075775771492066E-139,-1.0444716312512484E-140,-1.8562617338675957E-139,9.287666540695144E-140,-1.0291566959897929E-139,-2.6883912814005544E-140,-1.7046423910506813E-139,1.172150846982927E-139,-1.7437040653912374E-140,1.0897355741402949E-139,2.9817286868885246E-140,1.833789907378013E-139,2.982814554605573E-140,-1.4906818270108777E-139,2.555135145583669E-140,-5.68956438312361E-140,-1.0640918839676546E-139,3.422102990100703E-140,1.6813917951681903E-140,-1.2497762713980367E-139,-3.542567816855154E-140,-5.364788232860918E-140,-1.373702685953967E-139,-1.286788597085531E-140,-6.875890620236906E-140,-1.2426445303103375E-139,-4.628284049912839E-140,2.8750086794831585E-140,-1.8558360071437338E-139,-1.286724400984823E-139,1.395783994239296E-139,1.1825965333429608E-139,1.8531611401657919E-140,1.146599330351016E-139,-3.716369069856795E-140,-1.4014722014412127E-140,-4.558468890348394E-140,3.1460367724081024E-140,-4.182391401551097E-141,-7.263581215085573E-140,8.993592533407335E-140,1.3924630144916384E-139,1.0355658612570515E-139,-1.2267002676008992E-139,-3.3758027767721227E-140,2.0548951965073307E-139,-1.4426422056376994E-139,-2.4613940797150345E-140,-1.2233069838279192E-139,-2.2255070126512974E-139,-1.3319543504144376E-139,-3.338798818020727E-140,-1.999536985303906E-139,-4.1145561513244003E-140,1.5423130611473363E-139,-1.2196036489023343E-139,-1.4769327795024979E-139,-2.116518306301366E-139,-1.0416444244052759E-139,1.5234531001193062E-139,1.5279491188285405E-140,-7.16741630262004E-140,-2.6330829433398148E-140,-1.9920949705023357E-139,-1.7433029764525983E-139,5.789346496001233E-140,-6.432158271000739E-140,-1.6789784163392564E-139,9.134163499252105E-140,-1.0143718512628612E-139,-1.795149589409235E-139,4.8767374448490665E-140,-2.166640659464471E-139,1.947203922244963E-139,2.0529417487585415E-139,1.9498191648358633E-139,-1.8070943357454985E-139,-1.7901670349552998E-139,1.9452565060850475E-139],[-2.1677535080818114E-139,7.301577811199724E-140,1.0529244766178662E-139,1.969941227574077E-139,-1.8999394716906457E-140,-3.648160161567284E-140,9.094083390487417E-141,2.6161804133072665E-140,-2.170836942513937E-139,4.085145830871307E-141,1.9472435867129216E-140,-2.267964264307973E-139,1.8969300996149957E-139,1.8460766167555713E-139,-1.7271784594559228E-139,-1.3414421302656591E-139,1.8013078804084905E-139,3.2379007656876533E-140,2.08771969680668E-139,-2.247605051928863E-139,-1.794261536056622E-139,-7.8346185791265735E-140,-1.601291363682697E-139,-2.885110803399194E-140,1.8514511453914793E-139,-1.2393810677071365E-139,2.2747050944644125E-140,-7.513962710643903E-140,1.4474523289243546E-139,1.0623852269008642E-139,-2.0476996245559366E-139,-1.9457170087052753E-139,1.4388280737374078E-139,8.186384773208648E-140,-1.8206092157533415E-139,-1.7770407525807563E-139,-2.354538134699802E-139,1.2068480940754201E-141,2.004320009647081E-139,3.8889623037575176E-141,9.017137319924248E-140,1.477216687784628E-139,1.501396069483587E-139,1.1351794106402E-139,-2.159346977311397E-139,-1.5347180782411296E-139,-1.6954475221837525E-140,-6.09723632400738E-141,1.281029359983068E-140,1.3233772558717347E-139,8.986923149088969E-140,-7.223179129457885E-140,-1.5415318232972495E-139,7.336993364114425E-140,-5.359259060733341E-140,-1.6892776323043158E-139,-9.793100536760691E-140,1.150593214534111E-139,-4.1684192128706403E-140,2.1156785061886258E-139,-2.653500928004118E-140,-1.0798309953272343E-140,-1.2736370534255912E-139,-1.5846391809263543E-139,-2.2127583959262485E-139,-1.882205285578043E-139,8.885687315322067E-140,-3.447813597236714E-140,1.292856026253972E-139,-5.1805808602323043E-141,4.1597785818012382E-140,-4.896160591451209E-140,-2.0896608512134002E-139,1.4796595311471085E-140,-2.0968757322739692E-139,-1.4968366162912262E-139,3.4307441015360418E-140,1.2797495986260007E-139,6.525805513481428E-140,5.3800274094577E-140,5.41147698084094E-140,-2.692714975399377E-140,-6.191874298469272E-140,-1.582193150173629E-139,1.583471911725942E-139,-4.551568162332096E-140,1.1896153512363752E-139,-9.274579668542741E-141,-2.8323843377743203E-140,1.968646173834838E-139,8.831820234984195E-140,1.145006227384159E-139,6.178987551549946E-140,-1.2690962653895246E-139,-7.967294432693286E-140,1.892430688105356E-139,-1.9759446224251536E-139,-9.510619863011266E-141,9.840272959212344E-140,-4.792718370189636E-140,1.0989337909365724E-139,1.164449564581956E-139,-2.147907032533737E-139,1.4162705217299837E-139,-1.4472562592697525E-139,1.9228059352924665E-139,6.678493246540199E-140,-9.795168473767313E-140,-1.0513389074347603E-140,1.627110227097798E-139,-1.5247164822288898E-139,-5.684093210540966E-140,-1.9221923405524034E-139,-1.951809374068635E-139,-4.316281072633384E-140,1.9497315094660243E-139,1.6454888433680306E-139,-5.294976834486959E-140,4.961514502560251E-141,1.3334038567269772E-139,-1.140441075864609E-139,6.562682057196455E-140,-6.799281668721747E-140,1.7493046143403988E-139,1.3737413596216766E-139,1.1165569062241223E-139,-1.1402985255084051E-141,1.7157074316296692E-139,-5.879891321161605E-140,-4.1220496398759242E-140,2.458214322179674E-140,-1.2603628151306222E-139,-1.7827233822118795E-139,-2.1386833928477313E-139,-2.2000906864650827E-140,2.0251098917438986E-140,-1.785082784359545E-139,-1.5394627049225545E-140,-5.0128812859264005E-141,-6.167803347236805E-140,-1.6548965075093719E-139,1.2280172337019437E-139,-2.3268494284930153E-139,-1.5479190229924838E-141,1.9420656398129694E-139,-3.172220947503874E-140,5.72916336862964E-140,